{"learner":{"attributes":{"best_iteration":"9","best_ntree_limit":"10","scikit_learn":"{\"n_estimators\": 10, \"objective\": \"reg:linear\", \"max_depth\": null, \"learning_rate\": null, \"verbosity\": null, \"booster\": null, \"tree_method\": null, \"gamma\": null, \"min_child_weight\": null, \"max_delta_step\": null, \"subsample\": null, \"colsample_bytree\": null, \"colsample_bylevel\": null, \"colsample_bynode\": null, \"reg_alpha\": null, \"reg_lambda\": null, \"scale_pos_weight\": null, \"base_score\": null, \"missing\": NaN, \"num_parallel_tree\": null, \"random_state\": null, \"n_jobs\": null, \"monotone_constraints\": null, \"interaction_constraints\": null, \"importance_type\": null, \"gpu_id\": null, \"validate_parameters\": null, \"predictor\": null, \"enable_categorical\": false, \"kwargs\": {\"seed\": 123}, \"_estimator_type\": \"regressor\"}"},"feature_names":[],"feature_types":[],"gradient_booster":{"model":{"gbtree_model_param":{"num_trees":"10","size_leaf_vector":"0"},"tree_info":[0,0,0,0,0,0,0,0,0,0],"trees":[{"base_weights":[3.0602928E1,2.2115074E1,1.9811484E2,1.1711527E1,6.1165207E1,1.6756725E2,3.9101416E2,6.646321E0,2.390842E1,4.938158E1,8.329656E1,1.3684999E2,2.231663E2,3.6458948E2,8.064775E2,4.0216713E0,1.0873055E1,1.9301687E1,2.9908976E1,4.2405567E1,5.7225914E1,7.36931E1,9.57461E1,1.2326208E2,1.5773708E2,1.9828163E2,2.5050375E2,3.220979E2,4.7755322E2,6.6028125E2,1.1467656E3,2.5510027E0,5.665573E0,8.819739E0,1.4064591E1,1.7446632E1,2.4856716E1,2.7967648E1,3.9517635E1,3.022765E1,4.44073E1,4.3527084E1,6.0247673E1,5.590793E1,7.764703E1,7.864707E1,1.02062195E2,8.998283E1,1.2945848E2,1.3717561E2,1.7019684E2,1.6940453E2,2.1237111E2,2.3182718E2,2.7356244E2,2.7143982E2,3.4973547E2,4.148899E2,5.0976443E2,1.7767472E0,3.6960037E0,4.0464373E0,7.2602887E0,7.1816025E0,1.0649069E1,1.1989287E1,1.6723845E1,1.4714843E1,2.0152727E1,2.1355959E1,2.720083E1,2.4212818E1,3.1488642E1,3.5347076E1,4.604108E1,1.9574871E1,3.3034866E1,4.2617306E1,5.323687E1,3.4272434E1,4.7341244E1,5.8270157E1,7.7289955E1,3.7367542E1,6.06894E1,7.6110664E1,1.0755756E2,6.581919E1,8.434819E1,9.996133E1,1.4019077E2,5.3091217E1,9.922547E1,1.2687955E2,1.7427272E2,9.392523E1,1.4153543E2,1.6734189E2,2.4089285E2,1.584156E2,1.8845976E2,2.0240817E2,2.2945251E2,1.0910526E2,2.337484E2,2.5900305E2,3.125232E2,9.565625E1,2.771889E2,3.3821396E2,4.03775E2,2.2173334E2,4.3100974E2,4.8226154E2,5.5089404E2],"categories":[],"categories_nodes":[],"categories_segments":[],"categories_sizes":[],"default_left":[true,true,true,true,true,true,true,true,true,true,true,true,true,true,true,true,true,true,true,true,true,true,true,true,true,true,true,true,true,false,false,true,true,true,true,true,true,true,true,true,true,true,true,true,true,true,true,true,true,true,true,true,true,true,true,true,true,true,true,false,false,false,false,false,false,false,false,false,false,false,false,false,false,false,false,false,false,false,false,false,false,false,false,false,false,false,false,false,false,false,false,false,false,false,false,false,false,false,false,false,false,false,false,false,false,false,false,false,false,false,false,false,false,false,false],"id":0,"left_children":[1,3,5,7,9,11,13,15,17,19,21,23,25,27,29,31,33,35,37,39,41,43,45,47,49,51,53,55,57,-1,-1,59,61,63,65,67,69,71,73,75,77,79,81,83,85,87,89,91,93,95,97,99,101,103,105,107,109,111,113,-1,-1,-1,-1,-1,-1,-1,-1,-1,-1,-1,-1,-1,-1,-1,-1,-1,-1,-1,-1,-1,-1,-1,-1,-1,-1,-1,-1,-1,-1,-1,-1,-1,-1,-1,-1,-1,-1,-1,-1,-1,-1,-1,-1,-1,-1,-1,-1,-1,-1,-1,-1,-1,-1,-1,-1],"loss_changes":[4.0343184E8,1.09715464E8,8.056896E7,1.3174502E7,1.4812016E7,2.0147712E7,2.0235744E7,1.671543E6,1.729156E6,2.026456E6,2.352784E6,2.1412E6,2.809552E6,8.294208E6,4.764936E6,2.24724E5,3.78142E5,3.64369E5,5.05786E5,4.77124E5,7.19672E5,7.79532E5,9.19904E5,9.40432E5,7.44464E5,8.61152E5,7.97472E5,1.69996E6,7.55352E5,0E0,0E0,4.3491594E4,1.13305125E5,1.0518825E5,1.245015E5,1.959145E5,7.2126E4,2.98158E5,1.2257E5,8.2309E4,2.64122E5,1.098155E5,4.77192E5,1.77781E5,4.10776E5,1.64264E5,4.88312E5,2.429625E5,4.27468E5,2.00914E5,3.355E5,1.22586E5,2.05084E5,2.36444E5,4.23332E5,4.35324E5,3.7772E5,4.27526E5,8.7256E4,0E0,0E0,0E0,0E0,0E0,0E0,0E0,0E0,0E0,0E0,0E0,0E0,0E0,0E0,0E0,0E0,0E0,0E0,0E0,0E0,0E0,0E0,0E0,0E0,0E0,0E0,0E0,0E0,0E0,0E0,0E0,0E0,0E0,0E0,0E0,0E0,0E0,0E0,0E0,0E0,0E0,0E0,0E0,0E0,0E0,0E0,0E0,0E0,0E0,0E0,0E0,0E0,0E0,0E0,0E0,0E0],"parents":[2147483647,0,0,1,1,2,2,3,3,4,4,5,5,6,6,7,7,8,8,9,9,10,10,11,11,12,12,13,13,14,14,15,15,16,16,17,17,18,18,19,19,20,20,21,21,22,22,23,23,24,24,25,25,26,26,27,27,28,28,31,31,32,32,33,33,34,34,35,35,36,36,37,37,38,38,39,39,40,40,41,41,42,42,43,43,44,44,45,45,46,46,47,47,48,48,49,49,50,50,51,51,52,52,53,53,54,54,55,55,56,56,57,57,58,58],"right_children":[2,4,6,8,10,12,14,16,18,20,22,24,26,28,30,32,34,36,38,40,42,44,46,48,50,52,54,56,58,-1,-1,60,62,64,66,68,70,72,74,76,78,80,82,84,86,88,90,92,94,96,98,100,102,104,106,108,110,112,114,-1,-1,-1,-1,-1,-1,-1,-1,-1,-1,-1,-1,-1,-1,-1,-1,-1,-1,-1,-1,-1,-1,-1,-1,-1,-1,-1,-1,-1,-1,-1,-1,-1,-1,-1,-1,-1,-1,-1,-1,-1,-1,-1,-1,-1,-1,-1,-1,-1,-1,-1,-1,-1,-1,-1,-1],"split_conditions":[1.10625E2,3.696154E1,2.790417E2,1.57846155E1,6.684524E1,1.7826666E2,5.834375E2,7.9615383E0,2.4975E1,4.9375E1,8.238422E1,1.3605556E2,2.2013635E2,4.00375E2,8.477916E2,4.6076922E0,1.51205E3,2.594645E3,3.72055E3,7.216175E2,9.9894055E2,1.287475E3,1.8153401E3,2.014715E3,3.030395E3,3.207365E3,4.47591E3,5.24663E3,7.8593447E3,1.9808438E2,3.440297E2,6.95075E2,8.6616504E2,1.0939339E1,1.2051315E1,1.8811764E1,1.8275E1,2.8773504E1,3.3281578E1,4.264875E2,4.532425E3,7.20095E2,6.17745E3,8.2955E2,3.295E2,1.34995E3,1.165002E4,1.29136E3,3.285E2,1.739865E3,1.857426E4,1.9954166E2,2.169E2,8.37845E2,2.73275E2,1.85325E2,3.764375E2,2.608125E2,5.152163E2,5.330242E-1,1.1088011E0,1.2139312E0,2.1780868E0,2.154481E0,3.1947207E0,3.5967863E0,5.0171537E0,4.414453E0,6.0458183E0,6.406788E0,8.16025E0,7.263846E0,9.446593E0,1.0604123E1,1.3812325E1,5.8724613E0,9.91046E0,1.27851925E1,1.5971062E1,1.0281731E1,1.42023735E1,1.7481049E1,2.3186987E1,1.1210263E1,1.8206821E1,2.28332E1,3.226727E1,1.9745758E1,2.5304459E1,2.99884E1,4.205723E1,1.5927365E1,2.9767643E1,3.8063866E1,5.228182E1,2.817757E1,4.2460632E1,5.0202568E1,7.226786E1,4.752468E1,5.653793E1,6.0722454E1,6.8835754E1,3.273158E1,7.012452E1,7.770092E1,9.375696E1,2.8696877E1,8.315668E1,1.01464195E2,1.211325E2,6.6520004E1,1.2930293E2,1.4467847E2,1.6526822E2],"split_indices":[8,8,8,8,8,9,9,8,9,9,9,9,8,8,8,8,0,0,0,0,0,0,0,0,0,0,0,0,0,0,0,0,0,9,9,9,9,8,9,0,0,0,0,0,3,0,0,0,3,0,0,8,9,0,9,9,9,9,8,0,0,0,0,0,0,0,0,0,0,0,0,0,0,0,0,0,0,0,0,0,0,0,0,0,0,0,0,0,0,0,0,0,0,0,0,0,0,0,0,0,0,0,0,0,0,0,0,0,0,0,0,0,0,0,0],"split_type":[0,0,0,0,0,0,0,0,0,0,0,0,0,0,0,0,0,0,0,0,0,0,0,0,0,0,0,0,0,0,0,0,0,0,0,0,0,0,0,0,0,0,0,0,0,0,0,0,0,0,0,0,0,0,0,0,0,0,0,0,0,0,0,0,0,0,0,0,0,0,0,0,0,0,0,0,0,0,0,0,0,0,0,0,0,0,0,0,0,0,0,0,0,0,0,0,0,0,0,0,0,0,0,0,0,0,0,0,0,0,0,0,0,0,0],"sum_hessian":[2.83746E5,2.70063E5,1.3683E4,2.13251E5,5.6812E4,1.1814E4,1.869E3,1.50678E5,6.2573E4,3.7075E4,1.9737E4,7.612E3,4.202E3,1.759E3,1.1E2,9.2957E4,5.7721E4,3.54E4,2.7173E4,1.9627E4,1.7448E4,1.1146E4,8.591E3,4.616E3,2.996E3,2.204E3,1.998E3,1.281E3,4.78E2,7.9E1,3.1E1,4.9065E4,4.3892E4,3.5126E4,2.2595E4,2.6541E4,8.859E3,2.2609E4,4.564E3,2.773E3,1.6854E4,3.156E3,1.4292E4,2.03E3,9.116E3,2.321E3,6.27E3,7.27E2,3.889E3,1.135E3,1.861E3,7.27E2,1.477E3,1.11E3,8.88E2,4.56E2,8.25E2,1.67E2,3.11E2,2.9273E4,1.9792E4,2.1781E4,2.2111E4,1.8534E4,1.6592E4,1.2694E4,9.901E3,1.3211E4,1.333E4,3.557E3,5.302E3,1.0945E4,1.1664E4,2.788E3,1.776E3,5.8E2,2.193E3,1.4018E4,2.836E3,9.24E2,2.232E3,1.281E4,1.482E3,4.18E2,1.612E3,8.674E3,4.42E2,7.18E2,1.603E3,5.946E3,3.24E2,1.47E2,5.8E2,3.681E3,2.08E2,1.06E2,1.029E3,1.792E3,6.9E1,4.67E2,2.6E2,9.41E2,5.36E2,1.8E1,1.092E3,6.52E2,2.36E2,1.5E1,4.41E2,6.86E2,1.39E2,1.4E1,1.53E2,1.94E2,1.17E2],"tree_param":{"num_deleted":"0","num_feature":"10","num_nodes":"115","size_leaf_vector":"0"}},{"base_weights":[2.1431269E1,1.5922536E1,1.4880276E2,8.781564E0,4.6601223E1,1.3120808E2,3.23434E2,5.1511507E0,1.9153257E1,3.9018528E1,6.580515E1,1.0585172E2,1.7252731E2,2.9908435E2,6.444327E2,3.1896124E0,9.045039E0,1.5864802E1,2.3851593E1,3.3217632E1,4.582497E1,4.9567673E1,6.994226E1,9.3507126E1,1.2200444E2,1.4603772E2,1.9376472E2,2.60449E2,3.5586383E2,5.353369E2,9.378025E2,1.8865137E0,4.6643314E0,7.554848E0,1.2286082E1,1.470764E1,2.1421757E1,2.263519E1,3.5611107E1,2.4403069E1,3.4944294E1,3.426955E1,4.8439632E1,2.7822395E1,5.2478622E1,6.3968174E1,8.002949E1,7.949807E1,9.997084E1,8.573237E1,1.2652793E2,6.085917E1,1.5009148E2,1.7113309E2,2.1514981E2,2.4665817E2,3.2030807E2,3.2228204E2,3.903809E2,1.4820781E2,5.396034E2,2.3870781E2,9.633795E2,9.2955184E-1,2.5166678E0,3.3091817E0,6.144771E0,6.3990493E0,9.332189E0,1.0508206E1,1.4376375E1,1.2226998E1,1.662854E1,1.9901392E1,3.0371841E1,1.3694668E1,2.363739E1,3.247669E1,4.815333E1,1.513647E1,2.6634556E1,3.383224E1,4.6575184E1,2.4502012E1,3.739818E1,4.7054302E1,6.512794E1,3.094755E0,3.2706726E1,5.233819E1,1.5683617E2,6.237333E1,9.046701E1,7.8209045E1,1.0726139E2,6.235785E0,8.074296E1,9.742299E1,1.338524E2,-4.7036242E0,9.018088E1,1.24691925E2,2.0454472E2,1.6746315E1,8.505619E1,1.3640634E2,1.6266214E2,1.642716E2,1.9413596E2,2.031505E2,2.6516895E2,1.227492E2,2.5219699E2,2.7798953E2,3.4571973E2,1.3888199E2,3.2980304E2],"categories":[],"categories_nodes":[],"categories_segments":[],"categories_sizes":[],"default_left":[true,true,true,true,true,true,true,true,true,true,true,true,true,true,true,true,true,true,true,true,true,true,true,true,true,true,true,true,true,true,true,true,true,true,true,true,true,true,true,true,true,true,true,true,true,true,true,true,true,true,true,true,true,true,true,true,true,true,false,false,false,false,false,false,false,false,false,false,false,false,false,false,false,false,false,false,false,false,false,false,false,false,false,false,false,false,false,false,false,false,false,false,false,false,false,false,false,false,false,false,false,false,false,false,false,false,false,false,false,false,false,false,false,false,false,false,false],"id":1,"left_children":[1,3,5,7,9,11,13,15,17,19,21,23,25,27,29,31,33,35,37,39,41,43,45,47,49,51,53,55,57,59,61,63,65,67,69,71,73,75,77,79,81,83,85,87,89,91,93,95,97,99,101,103,105,107,109,111,113,115,-1,-1,-1,-1,-1,-1,-1,-1,-1,-1,-1,-1,-1,-1,-1,-1,-1,-1,-1,-1,-1,-1,-1,-1,-1,-1,-1,-1,-1,-1,-1,-1,-1,-1,-1,-1,-1,-1,-1,-1,-1,-1,-1,-1,-1,-1,-1,-1,-1,-1,-1,-1,-1,-1,-1,-1,-1,-1,-1],"loss_changes":[1.9909026E8,5.958489E7,3.610035E7,8.307436E6,7.475624E6,1.11796E7,8.217488E6,1.248236E6,8.83438E5,1.45226E6,9.73008E5,1.309808E6,2.257424E6,2.105392E6,1.898366E6,2.08846E5,2.64323E5,2.16091E5,3.36075E5,3.01748E5,5.10128E5,1.8559E5,6.92836E5,3.32522E5,4.5956E5,6.1654E5,1.053104E6,4.16296E5,3.41324E5,1.4172E4,1.09767E5,3.4792688E4,1.02262625E5,7.6987E4,6.3925E4,1.325375E5,7.829125E4,1.90941E5,8.515975E4,6.700825E4,2.13426E5,9.4703E4,3.1623E5,4.2291812E4,2.99685E4,3.01978E5,2.04978E5,1.082105E5,2.08728E5,1.2956425E5,3.39324E5,8.823722E4,2.75256E5,1.41568E5,6.3876E5,3.0671E5,2.1111E4,2.4386E5,0E0,0E0,0E0,0E0,0E0,0E0,0E0,0E0,0E0,0E0,0E0,0E0,0E0,0E0,0E0,0E0,0E0,0E0,0E0,0E0,0E0,0E0,0E0,0E0,0E0,0E0,0E0,0E0,0E0,0E0,0E0,0E0,0E0,0E0,0E0,0E0,0E0,0E0,0E0,0E0,0E0,0E0,0E0,0E0,0E0,0E0,0E0,0E0,0E0,0E0,0E0,0E0,0E0,0E0,0E0,0E0,0E0,0E0,0E0],"parents":[2147483647,0,0,1,1,2,2,3,3,4,4,5,5,6,6,7,7,8,8,9,9,10,10,11,11,12,12,13,13,14,14,15,15,16,16,17,17,18,18,19,19,20,20,21,21,22,22,23,23,24,24,25,25,26,26,27,27,28,28,29,29,30,30,31,31,32,32,33,33,34,34,35,35,36,36,37,37,38,38,39,39,40,40,41,41,42,42,43,43,44,44,45,45,46,46,47,47,48,48,49,49,50,50,51,51,52,52,53,53,54,54,55,55,56,56,57,57],"right_children":[2,4,6,8,10,12,14,16,18,20,22,24,26,28,30,32,34,36,38,40,42,44,46,48,50,52,54,56,58,60,62,64,66,68,70,72,74,76,78,80,82,84,86,88,90,92,94,96,98,100,102,104,106,108,110,112,114,116,-1,-1,-1,-1,-1,-1,-1,-1,-1,-1,-1,-1,-1,-1,-1,-1,-1,-1,-1,-1,-1,-1,-1,-1,-1,-1,-1,-1,-1,-1,-1,-1,-1,-1,-1,-1,-1,-1,-1,-1,-1,-1,-1,-1,-1,-1,-1,-1,-1,-1,-1,-1,-1,-1,-1,-1,-1,-1,-1],"split_conditions":[1.2116667E2,4.1225E1,3.277917E2,1.8408333E1,7.673215E1,1.965609E2,6.72E2,9.541958E0,2.91375E1,5.6160255E1,1.6509651E3,1.5284616E2,4.146505E3,4.423333E2,1.065E3,5.2649126E0,1.926995E3,3.312045E3,5.14646E3,8.32975E2,1.1366951E3,9.1794495E2,9.7425E1,2.59192E3,2.39975E3,1.592985E3,2.50125E2,4.078333E2,9.5139E3,7.86877E3,2.89548E4,4.50475E2,9.7605E2,1.391875E1,1.4025E1,2.130625E1,3.275E2,4.98111E2,4.41375E1,5.0585748E2,3.275E2,7.86475E2,3.275E2,3.53375E2,2.18875E2,3.295E2,3.295E2,8.26E2,3.285E2,7.8741504E2,2.1529012E4,1.651E2,2.2820834E2,2.585E2,9.660641E3,4.102525E3,9.531619E3,2.608125E2,1.1711427E2,4.4462345E1,1.6188103E2,7.161234E1,2.8901385E2,2.7886558E-1,7.550004E-1,9.927545E-1,1.8434314E0,1.9197148E0,2.7996566E0,3.152462E0,4.312913E0,3.6680996E0,4.988562E0,5.970418E0,9.111553E0,4.1084003E0,7.0912175E0,9.743007E0,1.4446E1,4.540941E0,7.990367E0,1.01496725E1,1.3972556E1,7.350604E0,1.1219454E1,1.4116291E1,1.9538382E1,9.284265E-1,9.812018E0,1.5701457E1,4.705085E1,1.8712E1,2.7140104E1,2.3462715E1,3.2178417E1,1.8707355E0,2.4222889E1,2.9226898E1,4.0155724E1,-1.4110873E0,2.7054264E1,3.7407578E1,6.136342E1,5.023895E0,2.551686E1,4.0921906E1,4.8798645E1,4.9281483E1,5.8240788E1,6.0945152E1,7.955069E1,3.682476E1,7.56591E1,8.3396866E1,1.0371592E2,4.1664597E1,9.894092E1],"split_indices":[8,8,8,8,8,8,9,8,9,8,0,8,0,8,9,9,0,0,0,0,0,0,9,0,0,0,9,9,0,0,0,0,0,9,9,9,3,0,9,0,3,0,3,0,9,3,3,0,3,0,0,9,8,8,0,0,0,9,0,0,0,0,0,0,0,0,0,0,0,0,0,0,0,0,0,0,0,0,0,0,0,0,0,0,0,0,0,0,0,0,0,0,0,0,0,0,0,0,0,0,0,0,0,0,0,0,0,0,0,0,0,0,0,0,0,0,0],"split_type":[0,0,0,0,0,0,0,0,0,0,0,0,0,0,0,0,0,0,0,0,0,0,0,0,0,0,0,0,0,0,0,0,0,0,0,0,0,0,0,0,0,0,0,0,0,0,0,0,0,0,0,0,0,0,0,0,0,0,0,0,0,0,0,0,0,0,0,0,0,0,0,0,0,0,0,0,0,0,0,0,0,0,0,0,0,0,0,0,0,0,0,0,0,0,0,0,0,0,0,0,0,0,0,0,0,0,0,0,0,0,0,0,0,0,0,0,0],"sum_hessian":[2.83746E5,2.71984E5,1.1762E4,2.2063E5,5.1354E4,1.0687E4,1.075E3,1.63427E5,5.7203E4,3.6819E4,1.4535E4,6.625E3,4.062E3,1.001E3,7.4E1,1.08681E5,5.4746E4,3.3653E4,2.355E4,1.9881E4,1.6938E4,2.954E3,1.1581E4,3.759E3,2.866E3,1.811E3,2.251E3,5.99E2,4.02E2,5.6E1,1.8E1,5.7699E4,5.0982E4,3.7505E4,1.7241E4,2.7856E4,5.797E3,2.1345E4,2.205E3,3.259E3,1.6622E4,3.128E3,1.381E4,3.5E2,2.604E3,7.278E3,4.303E3,1.191E3,2.568E3,3.2E2,2.546E3,8.3E1,1.728E3,1.098E3,1.153E3,4.91E2,1.08E2,2.09E2,1.93E2,1E0,5.5E1,1E0,1.7E1,2.291E4,3.4789E4,2.6619E4,2.4363E4,2.2729E4,1.4776E4,9.32E3,7.921E3,1.216E4,1.5696E4,4.958E3,8.39E2,2.153E3,1.9192E4,1.767E3,4.38E2,6.34E2,2.625E3,1.5175E4,1.447E3,7.61E2,2.367E3,1.2755E4,1.055E3,5.8E1,2.92E2,2.602E3,2E0,6.868E3,4.1E2,4.037E3,2.66E2,2E1,1.171E3,2.392E3,1.76E2,1.5E1,3.05E2,2.49E3,5.6E1,3E1,5.3E1,8.33E2,8.95E2,8.52E2,2.46E2,9.34E2,2.19E2,2.2E1,4.69E2,4.5E1,6.3E1,9E0,2E2],"tree_param":{"num_deleted":"0","num_feature":"10","num_nodes":"117","size_leaf_vector":"0"}},{"base_weights":[1.5009117E1,1.0217501E1,8.76565E1,5.4435024E0,2.7678381E1,7.19664E1,1.7668094E2,3.128386E0,1.1153633E1,2.2146818E1,3.648477E1,5.9833378E1,1.0023095E2,1.5977553E2,3.28865E2,1.794036E0,5.2302504E0,8.87952E0,1.4065473E1,1.8770676E1,2.6159172E1,3.525385E1,6.0969402E1,4.4513424E1,6.4682724E1,8.603534E1,1.117595E2,1.3400998E2,1.9184909E2,2.951713E2,6.5069556E2,8.51971E-1,2.5368376E0,3.536133E0,6.550601E0,7.626452E0,1.1915147E1,1.2899087E1,1.7349598E1,1.76563E1,2.7350937E1,2.5073404E1,3.4269363E1,2.2677372E1,3.7133945E1,6.015278E1,3.2700964E2,2.6622866E1,4.7518837E1,6.0115005E1,7.7316895E1,6.4981674E1,9.079989E1,1.0372398E2,1.2897206E2,3.0002985E1,1.3657669E2,1.4670247E2,2.0676926E2,2.612977E2,3.381064E2,3.3240005E-1,1.374539E0,1.2482733E0,3.2114942E0,2.3355913E0,4.2328534E0,5.4824123E0,7.622408E0,5.019747E0,8.263287E0,1.0751825E1,1.4591781E1,5.5064745E0,1.3398636E1,1.608593E1,2.6676641E1,1.2009862E1,1.9040052E1,2.4823547E1,3.8197723E1,1.9422127E1,2.62094E1,3.1073832E1,5.2316498E1,9.934367E0,2.4643576E1,3.493141E1,4.3882412E1,5.4488167E1,7.972185E1,8.324438E1,2.3950754E1,3.2038036E1,4.8514595E1,5.8390182E1,8.370424E1,7.504952E1,1.1771524E2,-1.5039193E1,6.78969E1,8.2192E1,9.838846E1,1.0168566E2,1.8521179E2,1.16959465E2,1.5009123E2,-9.662876E0,5.9739037E1,1.2867365E2,1.5499052E2,1.4162387E2,2.1688666E2,1.9430959E2,2.452957E2,2.9328967E2,2.3443741E2,3.18164E2,4.4073267E2],"categories":[],"categories_nodes":[],"categories_segments":[],"categories_sizes":[],"default_left":[true,true,true,true,true,true,true,true,true,true,true,true,true,true,true,true,true,true,true,true,true,true,true,true,true,true,true,true,true,true,false,true,true,true,true,true,true,true,true,true,true,true,true,true,true,true,false,true,true,true,true,true,true,true,true,true,true,true,true,true,true,false,false,false,false,false,false,false,false,false,false,false,false,false,false,false,false,false,false,false,false,false,false,false,false,false,false,false,false,false,false,false,false,false,false,false,false,false,false,false,false,false,false,false,false,false,false,false,false,false,false,false,false,false,false,false,false,false,false],"id":2,"left_children":[1,3,5,7,9,11,13,15,17,19,21,23,25,27,29,31,33,35,37,39,41,43,45,47,49,51,53,55,57,59,-1,61,63,65,67,69,71,73,75,77,79,81,83,85,87,89,-1,91,93,95,97,99,101,103,105,107,109,111,113,115,117,-1,-1,-1,-1,-1,-1,-1,-1,-1,-1,-1,-1,-1,-1,-1,-1,-1,-1,-1,-1,-1,-1,-1,-1,-1,-1,-1,-1,-1,-1,-1,-1,-1,-1,-1,-1,-1,-1,-1,-1,-1,-1,-1,-1,-1,-1,-1,-1,-1,-1,-1,-1,-1,-1,-1,-1,-1,-1],"loss_changes":[9.8770984E7,2.2189056E7,2.451096E7,2.763381E6,2.783292E6,5.113328E6,6.713744E6,4.1714175E5,3.991925E5,4.75064E5,6.62348E5,7.73244E5,7.23884E5,1.93202E6,2.648974E6,6.3663375E4,1.291695E5,1.2871475E5,1.01064E5,1.81838E5,1.40377E5,4.95586E5,2.0931675E5,1.33963E5,4.5316E5,1.96027E5,3.28254E5,3.47482E5,6.7896E5,2.59248E5,0E0,1.0890398E4,4.421925E4,2.1152094E4,3.7119125E4,3.9751375E4,3.064475E4,7.19985E4,8.1214375E4,1.31652E5,5.9088625E4,9.0325E4,1.074285E5,6.82315E4,2.69926E5,1.1227125E5,0E0,5.3079062E4,3.1619E4,2.3236E5,1.83797E5,8.85005E4,9.8975E4,2.61708E5,1.80835E5,3.9500953E4,1.67058E5,6.37395E4,3.31076E5,4.9827E4,6.8529E4,0E0,0E0,0E0,0E0,0E0,0E0,0E0,0E0,0E0,0E0,0E0,0E0,0E0,0E0,0E0,0E0,0E0,0E0,0E0,0E0,0E0,0E0,0E0,0E0,0E0,0E0,0E0,0E0,0E0,0E0,0E0,0E0,0E0,0E0,0E0,0E0,0E0,0E0,0E0,0E0,0E0,0E0,0E0,0E0,0E0,0E0,0E0,0E0,0E0,0E0,0E0,0E0,0E0,0E0,0E0,0E0,0E0,0E0],"parents":[2147483647,0,0,1,1,2,2,3,3,4,4,5,5,6,6,7,7,8,8,9,9,10,10,11,11,12,12,13,13,14,14,15,15,16,16,17,17,18,18,19,19,20,20,21,21,22,22,23,23,24,24,25,25,26,26,27,27,28,28,29,29,31,31,32,32,33,33,34,34,35,35,36,36,37,37,38,38,39,39,40,40,41,41,42,42,43,43,44,44,45,45,47,47,48,48,49,49,50,50,51,51,52,52,53,53,54,54,55,55,56,56,57,57,58,58,59,59,60,60],"right_children":[2,4,6,8,10,12,14,16,18,20,22,24,26,28,30,32,34,36,38,40,42,44,46,48,50,52,54,56,58,60,-1,62,64,66,68,70,72,74,76,78,80,82,84,86,88,90,-1,92,94,96,98,100,102,104,106,108,110,112,114,116,118,-1,-1,-1,-1,-1,-1,-1,-1,-1,-1,-1,-1,-1,-1,-1,-1,-1,-1,-1,-1,-1,-1,-1,-1,-1,-1,-1,-1,-1,-1,-1,-1,-1,-1,-1,-1,-1,-1,-1,-1,-1,-1,-1,-1,-1,-1,-1,-1,-1,-1,-1,-1,-1,-1,-1,-1,-1,-1],"split_conditions":[9.604167E1,3.4788887E1,2.5433334E2,1.5256578E1,6.005E1,1.6209091E2,4.8127777E2,7.7735043E0,2.3886906E1,4.6569443E1,8.8308E3,2.137665E3,3.663085E3,6.1302354E3,1.0345E3,6.00025E2,1.08663E3,2.302025E3,3.007E3,4.76075E3,5.50645E3,1.084825E3,1.9117105E2,1.302855E3,1.39175E2,2.2882998E3,2.3625E2,1.7829999E2,2.65925E2,5.560128E2,1.9520868E2,3.0025E2,4.051316E0,5.18125E2,1.1240385E1,1.4240385E1,4.08226E3,3.7201202E2,3.275E2,3.1303844E1,3.275E2,9.04525E2,3.275E2,5.87245E2,8.3080124E1,3.275E2,9.81029E1,1.5E0,7.66E1,3.275E2,3.295E2,5.01675E2,1.9115909E2,2.4325352E4,5.478435E3,2.4642402E3,3.0481818E2,3.5980574E4,4.6653845E2,1.35E1,9.188334E2,9.972002E-2,4.123617E-1,3.7448198E-1,9.634483E-1,7.006774E-1,1.2698561E0,1.6447238E0,2.2867224E0,1.5059241E0,2.478986E0,3.2255478E0,4.3775344E0,1.6519424E0,4.019591E0,4.825779E0,8.002993E0,3.6029587E0,5.712016E0,7.4470644E0,1.1459317E1,5.826638E0,7.86282E0,9.32215E0,1.569495E1,2.9803102E0,7.393073E0,1.04794235E1,1.3164724E1,1.634645E1,2.3916555E1,2.4973314E1,7.1852264E0,9.611411E0,1.4554379E1,1.7517056E1,2.5111273E1,2.2514858E1,3.5314575E1,-4.5117583E0,2.036907E1,2.4657602E1,2.9516539E1,3.05057E1,5.556354E1,3.508784E1,4.502737E1,-2.8988628E0,1.7921711E1,3.8602097E1,4.6497158E1,4.2487164E1,6.5066E1,5.8292877E1,7.3588715E1,8.798691E1,7.033122E1,9.54492E1,1.322198E2],"split_indices":[8,9,8,9,9,9,9,9,8,8,0,0,0,0,8,0,0,0,0,0,0,0,9,0,8,0,9,9,9,8,0,0,9,0,8,8,0,0,3,8,3,0,3,0,8,3,0,2,9,3,3,0,8,0,0,0,8,0,8,2,9,0,0,0,0,0,0,0,0,0,0,0,0,0,0,0,0,0,0,0,0,0,0,0,0,0,0,0,0,0,0,0,0,0,0,0,0,0,0,0,0,0,0,0,0,0,0,0,0,0,0,0,0,0,0,0,0,0,0],"split_type":[0,0,0,0,0,0,0,0,0,0,0,0,0,0,0,0,0,0,0,0,0,0,0,0,0,0,0,0,0,0,0,0,0,0,0,0,0,0,0,0,0,0,0,0,0,0,0,0,0,0,0,0,0,0,0,0,0,0,0,0,0,0,0,0,0,0,0,0,0,0,0,0,0,0,0,0,0,0,0,0,0,0,0,0,0,0,0,0,0,0,0,0,0,0,0,0,0,0,0,0,0,0,0,0,0,0,0,0,0,0,0,0,0,0,0,0,0,0,0],"sum_hessian":[2.83746E5,2.6619E5,1.7556E4,2.09038E5,5.7152E4,1.4927E4,2.629E3,1.48736E5,6.0302E4,3.5105E4,2.2047E4,1.0446E4,4.481E3,2.368E3,2.61E2,9.098E4,5.7756E4,3.3861E4,2.6441E4,1.9067E4,1.6038E4,2.0994E4,1.053E3,2.514E3,7.932E3,2.012E3,2.469E3,1.316E3,1.052E3,2.38E2,2.3E1,4.0111E4,5.0869E4,2.5299E4,3.2457E4,2.397E4,9.891E3,1.9515E4,6.926E3,1.6878E4,2.189E3,1.4148E4,1.89E3,2.732E3,1.8262E4,1.051E3,2E0,3.63E2,2.151E3,5.83E3,2.102E3,3.74E2,1.638E3,1.688E3,7.81E2,3.2E1,1.284E3,2.64E2,7.88E2,1.37E2,1.01E2,2.0114E4,1.9997E4,1.7482E4,3.3387E4,9.292E3,1.6007E4,1.6259E4,1.6198E4,4.708E3,1.9262E4,6.898E3,2.993E3,1.236E3,1.8279E4,6.102E3,8.24E2,3.324E3,1.3554E4,1.778E3,4.11E2,2.371E3,1.1777E4,1.608E3,2.82E2,3.66E2,2.366E3,1.3773E4,4.489E3,8.18E2,2.33E2,1.5E1,3.48E2,1.32E2,2.019E3,5.436E3,3.94E2,1.993E3,1.09E2,1.3E1,3.61E2,7.73E2,8.65E2,1.649E3,3.9E1,5.02E2,2.79E2,1.4E1,1.8E1,9.04E2,3.8E2,2.49E2,1.5E1,6E2,1.88E2,5.8E1,7.9E1,8.8E1,1.3E1],"tree_param":{"num_deleted":"0","num_feature":"10","num_nodes":"119","size_leaf_vector":"0"}},{"base_weights":[1.0511989E1,7.685329E0,7.188517E1,4.0480046E0,2.1792341E1,6.396281E1,1.6974901E2,2.3133767E0,8.549213E0,1.7615192E1,3.027501E1,4.9408703E1,8.3971275E1,1.6000821E2,4.3114853E2,1.3754425E0,4.089355E0,6.735318E0,1.0705877E1,1.4472215E1,2.0809612E1,2.1149755E1,3.2796936E1,3.884997E1,5.4569E1,6.739028E1,9.283717E1,1.4639389E2,2.1580722E2,3.208649E2,5.420979E2,2.9736048E-1,1.8212173E0,3.229298E0,5.619571E0,6.0186563E0,9.847311E0,6.1937757E0,1.1301133E1,7.220202E0,1.5313761E1,2.0144947E1,3.2566658E1,1.1800727E1,2.3075563E1,3.200974E1,5.9523964E1,2.9638845E1,4.2861607E1,5.253192E1,8.307583E1,-1.6439505E1,6.8449196E1,8.480539E1,1.108958E2,1.346894E2,1.7356848E2,2.106177E2,4.431334E2,-2.572169E-1,6.7536503E-1,1.3658755E0,2.7964566E0,2.1896238E0,3.7960532E0,5.183453E0,8.990457E0,1.3197154E0,6.354459E0,9.0857525E0,1.3529565E1,-1.0217915E1,6.667177E0,1.089791E1,1.7774023E1,-6.6153727E0,8.241939E0,1.4613546E1,2.1781626E1,1.4695217E1,2.0959667E1,4.3589893E1,2.1873148E1,-9.742617E0,1.337669E1,2.2873272E1,6.578525E1,2.8618364E1,3.612975E1,9.832445E1,5.5753906E1,3.343899E0,3.1888502E1,4.6533436E1,3.7677025E1,5.4727848E1,3.3267128E1,7.2093185E1,1.03472946E2,-5.25662E1,1.2614838E1,6.7083496E1,1.0611102E2,7.9553055E1,9.37712E1,1.0121594E2,1.3936185E2,1.1556435E2,1.4439142E2,1.7562848E2,9.80549E1,2.0178094E2,2.9656522E2],"categories":[],"categories_nodes":[],"categories_segments":[],"categories_sizes":[],"default_left":[true,true,true,true,true,true,true,true,true,true,true,true,true,true,true,true,true,true,true,true,true,true,true,true,true,true,true,true,true,false,false,true,true,true,true,true,true,true,true,true,true,true,true,true,true,true,true,true,true,true,true,true,true,true,true,true,true,true,false,false,false,false,false,false,false,false,false,false,false,false,false,false,false,false,false,false,false,false,false,false,false,false,false,false,false,false,false,false,false,false,false,false,false,false,false,false,false,false,false,false,false,false,false,false,false,false,false,false,false,false,false,false,false],"id":3,"left_children":[1,3,5,7,9,11,13,15,17,19,21,23,25,27,29,31,33,35,37,39,41,43,45,47,49,51,53,55,57,-1,-1,59,61,63,65,67,69,71,73,75,77,79,81,83,85,87,89,91,93,95,97,99,101,103,105,107,109,111,-1,-1,-1,-1,-1,-1,-1,-1,-1,-1,-1,-1,-1,-1,-1,-1,-1,-1,-1,-1,-1,-1,-1,-1,-1,-1,-1,-1,-1,-1,-1,-1,-1,-1,-1,-1,-1,-1,-1,-1,-1,-1,-1,-1,-1,-1,-1,-1,-1,-1,-1,-1,-1,-1,-1],"loss_changes":[4.922419E7,1.3918489E7,9.67512E6,1.6837825E6,1.969666E6,3.361896E6,2.311746E6,2.5929512E5,2.345985E5,3.73779E5,4.21484E5,3.62611E5,7.09072E5,6.54386E5,2.298445E5,4.8955844E4,7.078394E4,7.2615625E4,7.353075E4,1.1452625E5,1.43725E5,7.1295375E4,3.00453E5,8.00605E4,2.56605E5,1.519435E5,4.50092E5,2.08491E5,1.13118E5,0E0,0E0,6.2474395E3,3.1999656E4,2.0286906E4,2.840875E4,4.1789062E4,1.6977375E4,2.4898867E4,6.29895E4,2.7691016E4,7.5903E4,7.7347E4,1.1539125E5,2.3251305E4,2.69635E4,1.9405E5,5.4492875E4,3.9586125E4,2.739225E4,1.75729E5,5.9296625E4,2.3755137E4,7.91895E4,9.6001E4,2.53726E5,7.8688E4,1.6379E4,7.1552E4,0E0,0E0,0E0,0E0,0E0,0E0,0E0,0E0,0E0,0E0,0E0,0E0,0E0,0E0,0E0,0E0,0E0,0E0,0E0,0E0,0E0,0E0,0E0,0E0,0E0,0E0,0E0,0E0,0E0,0E0,0E0,0E0,0E0,0E0,0E0,0E0,0E0,0E0,0E0,0E0,0E0,0E0,0E0,0E0,0E0,0E0,0E0,0E0,0E0,0E0,0E0,0E0,0E0,0E0,0E0],"parents":[2147483647,0,0,1,1,2,2,3,3,4,4,5,5,6,6,7,7,8,8,9,9,10,10,11,11,12,12,13,13,14,14,15,15,16,16,17,17,18,18,19,19,20,20,21,21,22,22,23,23,24,24,25,25,26,26,27,27,28,28,31,31,32,32,33,33,34,34,35,35,36,36,37,37,38,38,39,39,40,40,41,41,42,42,43,43,44,44,45,45,46,46,47,47,48,48,49,49,50,50,51,51,52,52,53,53,54,54,55,55,56,56,57,57],"right_children":[2,4,6,8,10,12,14,16,18,20,22,24,26,28,30,32,34,36,38,40,42,44,46,48,50,52,54,56,58,-1,-1,60,62,64,66,68,70,72,74,76,78,80,82,84,86,88,90,92,94,96,98,100,102,104,106,108,110,112,-1,-1,-1,-1,-1,-1,-1,-1,-1,-1,-1,-1,-1,-1,-1,-1,-1,-1,-1,-1,-1,-1,-1,-1,-1,-1,-1,-1,-1,-1,-1,-1,-1,-1,-1,-1,-1,-1,-1,-1,-1,-1,-1,-1,-1,-1,-1,-1,-1,-1,-1,-1,-1,-1,-1],"split_conditions":[1.1564583E2,3.8292854E1,3.418333E2,1.6775E1,6.983125E1,1.83125E2,8.162916E2,8.771242E0,2.5554945E1,5.1080128E1,1.5417029E3,2.680545E3,3.7711E3,5.140625E2,1.065E3,3.4772727E0,1.69101E3,3.010495E3,5.3904E2,6.2386E2,7.2128203E3,9.275426E2,1.30456E4,1.911135E3,1.588835E4,5.70845E2,2.715E2,4.68625E2,9.3234875E4,9.6259476E1,1.6262938E2,2.3166666E0,1.28003E3,6.9707996E2,3.275E2,2.9122052E2,3.265E2,9.3825E1,3.295E2,1.4759E2,5.59795E3,9.4246497E2,4.5E0,1.58095E2,1.4583334E2,8.970833E1,2.56E2,8.50275E2,4.5E0,5.5E0,2.55E1,3.6997E2,3.2805835E2,2.965E2,8.483129E3,6.3192803E3,5.861923E2,3.295E2,1.3294002E2,-7.7165075E-2,2.0260952E-1,4.0976265E-1,8.38937E-1,6.568872E-1,1.138816E0,1.555036E0,2.697137E0,3.9591464E-1,1.9063377E0,2.725726E0,4.05887E0,-3.0653746E0,2.0001533E0,3.2693732E0,5.332207E0,-1.9846119E0,2.4725816E0,4.384064E0,6.534488E0,4.4085655E0,6.2879004E0,1.3076968E1,6.5619445E0,-2.922785E0,4.013007E0,6.861982E0,1.9735575E1,8.585509E0,1.0838925E1,2.9497335E1,1.6726173E1,1.0031698E0,9.566551E0,1.39600315E1,1.1303108E1,1.6418356E1,9.980139E0,2.1627956E1,3.1041885E1,-1.576986E1,3.7844515E0,2.012505E1,3.1833307E1,2.3865917E1,2.8131361E1,3.0364784E1,4.1808556E1,3.4669304E1,4.331743E1,5.2688545E1,2.9416471E1,6.0534286E1,8.896957E1],"split_indices":[9,9,8,9,9,8,8,9,8,8,0,0,0,9,9,8,0,0,0,0,0,0,0,0,0,0,9,8,0,0,0,8,0,0,3,0,3,0,3,0,0,0,4,0,8,8,3,0,4,4,2,0,9,3,0,0,8,3,0,0,0,0,0,0,0,0,0,0,0,0,0,0,0,0,0,0,0,0,0,0,0,0,0,0,0,0,0,0,0,0,0,0,0,0,0,0,0,0,0,0,0,0,0,0,0,0,0,0,0,0,0,0,0],"split_type":[0,0,0,0,0,0,0,0,0,0,0,0,0,0,0,0,0,0,0,0,0,0,0,0,0,0,0,0,0,0,0,0,0,0,0,0,0,0,0,0,0,0,0,0,0,0,0,0,0,0,0,0,0,0,0,0,0,0,0,0,0,0,0,0,0,0,0,0,0,0,0,0,0,0,0,0,0,0,0,0,0,0,0,0,0,0,0,0,0,0,0,0,0,0,0,0,0,0,0,0,0,0,0,0,0,0,0,0,0,0,0,0,0],"sum_hessian":[2.83746E5,2.71254E5,1.2492E4,2.15652E5,5.5602E4,1.1558E4,9.34E2,1.55665E5,5.9987E4,3.7258E4,1.8344E4,6.693E3,4.865E3,9.02E2,3.2E1,1.01868E5,5.3797E4,3.2585E4,2.7402E4,1.8783E4,1.8475E4,3.974E3,1.437E4,2.2E3,4.493E3,1.698E3,3.167E3,7.28E2,1.74E2,1.8E1,1.4E1,2.98E4,7.2068E4,3.4442E4,1.9355E4,2.6488E4,6.097E3,3.195E3,2.4207E4,1.954E3,1.6829E4,1.7489E4,9.86E2,6.8E2,3.294E3,1.3961E4,4.09E2,6.7E2,1.53E3,4.196E3,2.97E2,2.1E1,1.677E3,2.196E3,9.71E2,5.13E2,2.15E2,1.72E2,2E0,1.2079E4,1.7721E4,4.9131E4,2.2937E4,1.2153E4,2.2289E4,1.714E4,2.215E3,1.767E3,2.4721E4,5.055E3,1.042E3,8.9E1,3.106E3,2.279E4,1.417E3,1.34E2,1.82E3,1.5188E4,1.641E3,2.277E3,1.5212E4,4.84E2,5.02E2,4.6E1,6.34E2,3.28E3,1.4E1,7.662E3,6.299E3,3.4E1,3.75E2,5.3E1,6.17E2,8.91E2,6.39E2,3.765E3,4.31E2,1.96E2,1.01E2,9E0,1.2E1,1.621E3,5.6E1,1.391E3,8.05E2,7.28E2,2.43E2,1.77E2,3.36E2,2.08E2,7E0,1.59E2,1.3E1],"tree_param":{"num_deleted":"0","num_feature":"10","num_nodes":"113","size_leaf_vector":"0"}},{"base_weights":[7.362408E0,5.270593E0,4.8336983E1,2.5495842E0,1.4068392E1,3.9156765E1,9.059336E1,1.2703477E0,4.933222E0,1.099942E1,1.9856785E1,3.1871092E1,5.075184E1,8.584795E1,2.3825732E2,6.154218E-1,2.062458E0,4.5482836E0,9.277912E0,8.8664875E0,1.2890002E1,1.9158474E1,3.4222054E1,3.0796103E1,5.702114E1,5.049005E1,3.237395E2,7.420696E1,1.1639891E2,2.1818639E2,6.5392126E2,-1.4200218E-1,8.3590305E-1,9.9600375E-1,2.551342E0,3.7115803E0,5.906746E0,8.446299E0,1.5202979E1,1.163327E0,9.235264E0,1.280858E1,7.0420456E1,1.3834331E1,2.0673851E1,4.5302742E1,2.8059034E1,2.3681818E1,3.342659E1,1.1339658E2,5.454979E1,4.167612E1,5.4161865E1,8.678953E1,6.424872E1,1.1239993E2,1.8214795E2,1.8138943E2,3.2258862E2,-4.8867717E-1,8.3988614E-2,1.4949764E-1,1.0714154E0,3.12532E-1,1.4508889E0,2.3416162E0,4.2930803E0,3.4939485E0,6.3259263E0,4.799693E-1,6.1453595E0,7.448075E0,1.3358594E1,5.440923E1,1.1942398E1,6.9850903E0,-2.8887942E0,8.876449E0,1.5662767E1,1.2373644E1,2.1149456E1,1.02252335E2,1.1498953E1,1.9166727E1,1.2590066E1,2.4621826E1,1.9115723E1,3.5777004E1,5.9774147E1,8.290207E1,2.4575212E1,1.3296706E1,2.538176E1,3.7827324E1,2.7287613E1,2.5648856E2,2.7676027E1,4.8036472E1,6.822963E1,1.5988462E0,4.2695923E1,6.14459E1,4.5272015E1,8.1352486E1,1.3403091E2,3.6102844E1,6.841275E1,9.925701E1,1.1982461E2,2.3124802E2,1.5129399E2,8.5473E1,1.8701572E2,1.9235223E2,3.8797977E2],"categories":[],"categories_nodes":[],"categories_segments":[],"categories_sizes":[],"default_left":[true,true,true,true,true,true,true,true,true,true,true,true,true,true,true,true,true,true,true,true,true,true,true,true,true,true,false,true,true,true,false,true,true,true,true,true,true,true,true,true,true,true,true,true,true,true,true,true,true,true,true,true,true,true,true,true,true,true,true,false,false,false,false,false,false,false,false,false,false,false,false,false,false,false,false,false,false,false,false,false,false,false,false,false,false,false,false,false,false,false,false,false,false,false,false,false,false,false,false,false,false,false,false,false,false,false,false,false,false,false,false,false,false,false,false],"id":4,"left_children":[1,3,5,7,9,11,13,15,17,19,21,23,25,27,29,31,33,35,37,39,41,43,45,47,49,51,-1,53,55,57,-1,59,61,63,65,67,69,71,73,75,77,79,81,83,85,87,89,91,93,95,97,99,101,103,105,107,109,111,113,-1,-1,-1,-1,-1,-1,-1,-1,-1,-1,-1,-1,-1,-1,-1,-1,-1,-1,-1,-1,-1,-1,-1,-1,-1,-1,-1,-1,-1,-1,-1,-1,-1,-1,-1,-1,-1,-1,-1,-1,-1,-1,-1,-1,-1,-1,-1,-1,-1,-1,-1,-1,-1,-1,-1,-1],"loss_changes":[2.432005E7,6.462651E6,5.342802E6,6.28731E5,1.132654E6,9.55012E5,1.702632E6,6.960983E4,1.2039325E5,1.679515E5,2.20989E5,1.86334E5,2.95812E5,8.39216E5,4.91373E5,1.2266773E4,3.1660938E4,7.5169625E4,2.8745969E4,5.5631E4,1.025825E5,1.697325E5,6.8590125E4,1.241055E5,3.3382125E4,1.39008E5,0E0,2.11068E5,1.52008E5,2.2577075E5,0E0,1.2975968E3,9.196988E3,5.934959E3,1.5200875E4,2.3271875E4,3.2645438E4,2.510975E4,9.1391516E4,2.1157256E4,4.2970125E4,7.97735E4,5.696725E4,3.0757E4,1.004255E5,4.8039125E4,1.240645E5,3.1528125E4,1.30536E5,1.2782655E5,2.113625E4,5.25735E4,1.96531E5,1.845615E5,1.11097E5,4.8705E4,1.9551125E4,1.4775375E4,7.8664875E4,0E0,0E0,0E0,0E0,0E0,0E0,0E0,0E0,0E0,0E0,0E0,0E0,0E0,0E0,0E0,0E0,0E0,0E0,0E0,0E0,0E0,0E0,0E0,0E0,0E0,0E0,0E0,0E0,0E0,0E0,0E0,0E0,0E0,0E0,0E0,0E0,0E0,0E0,0E0,0E0,0E0,0E0,0E0,0E0,0E0,0E0,0E0,0E0,0E0,0E0,0E0,0E0,0E0,0E0,0E0,0E0],"parents":[2147483647,0,0,1,1,2,2,3,3,4,4,5,5,6,6,7,7,8,8,9,9,10,10,11,11,12,12,13,13,14,14,15,15,16,16,17,17,18,18,19,19,20,20,21,21,22,22,23,23,24,24,25,25,27,27,28,28,29,29,31,31,32,32,33,33,34,34,35,35,36,36,37,37,38,38,39,39,40,40,41,41,42,42,43,43,44,44,45,45,46,46,47,47,48,48,49,49,50,50,51,51,52,52,53,53,54,54,55,55,56,56,57,57,58,58],"right_children":[2,4,6,8,10,12,14,16,18,20,22,24,26,28,30,32,34,36,38,40,42,44,46,48,50,52,-1,54,56,58,-1,60,62,64,66,68,70,72,74,76,78,80,82,84,86,88,90,92,94,96,98,100,102,104,106,108,110,112,114,-1,-1,-1,-1,-1,-1,-1,-1,-1,-1,-1,-1,-1,-1,-1,-1,-1,-1,-1,-1,-1,-1,-1,-1,-1,-1,-1,-1,-1,-1,-1,-1,-1,-1,-1,-1,-1,-1,-1,-1,-1,-1,-1,-1,-1,-1,-1,-1,-1,-1,-1,-1,-1,-1,-1,-1],"split_conditions":[1.08816666E2,3.3080128E1,2.591389E2,1.2961538E1,6.36125E1,1.6664774E2,6.555E2,6.261364E0,4.5090703E3,4.3841667E1,9.76634E3,1.5152215E4,5.280052E4,3.689167E2,1.434631E5,2.7350879E0,7.451E2,2.2292858E1,3.3298244E1,2.31125E1,2.941755E4,1.4152451E3,4.5E0,2.323995E3,8.061539E1,3.295845E3,9.712186E1,1.35E1,4.823203E4,1.065E3,1.9617639E2,1.9736842E0,3.5005E2,3.9522E2,3.265E2,3.275E2,3.2014502E2,3.265E2,2.545E2,3.7083336E1,3.295E2,3.295E2,4.5E0,7.5E0,2.605E2,3.145E2,5.553846E1,8.591667E1,2.825E2,1.05E1,2.55E1,1.392E2,4.5E0,3.145E2,3.43412E3,3.613542E2,5.499E2,5.5215063E2,3.4523406E4,-1.4660315E-1,2.5196586E-2,4.4849295E-2,3.2142463E-1,9.3759604E-2,4.3526667E-1,7.0248485E-1,1.2879242E0,1.0481846E0,1.8977779E0,1.439908E-1,1.8436079E0,2.2344224E0,4.0075784E0,1.632277E1,3.5827196E0,2.0955272E0,-8.666383E-1,2.6629348E0,4.6988306E0,3.7120934E0,6.344837E0,3.0675701E1,3.449686E0,5.750018E0,3.77702E0,7.386548E0,5.734717E0,1.0733102E1,1.7932245E1,2.4870623E1,7.372564E0,3.989012E0,7.614528E0,1.1348198E1,8.186284E0,7.694657E1,8.302809E0,1.4410942E1,2.046889E1,4.7965387E-1,1.2808778E1,1.8433771E1,1.3581605E1,2.4405746E1,4.0209274E1,1.0830853E1,2.0523827E1,2.9777105E1,3.5947384E1,6.9374405E1,4.53882E1,2.5641901E1,5.6104717E1,5.7705673E1,1.16393936E2],"split_indices":[9,8,8,8,9,8,9,8,0,9,0,0,0,8,0,9,0,8,9,9,0,0,4,0,8,0,0,2,0,9,0,9,0,0,3,3,0,3,3,8,3,3,4,2,3,3,8,8,3,1,2,9,4,3,0,9,9,8,0,0,0,0,0,0,0,0,0,0,0,0,0,0,0,0,0,0,0,0,0,0,0,0,0,0,0,0,0,0,0,0,0,0,0,0,0,0,0,0,0,0,0,0,0,0,0,0,0,0,0,0,0,0,0,0,0],"split_type":[0,0,0,0,0,0,0,0,0,0,0,0,0,0,0,0,0,0,0,0,0,0,0,0,0,0,0,0,0,0,0,0,0,0,0,0,0,0,0,0,0,0,0,0,0,0,0,0,0,0,0,0,0,0,0,0,0,0,0,0,0,0,0,0,0,0,0,0,0,0,0,0,0,0,0,0,0,0,0,0,0,0,0,0,0,0,0,0,0,0,0,0,0,0,0,0,0,0,0,0,0,0,0,0,0,0,0,0,0,0,0,0,0,0,0],"sum_hessian":[2.83746E5,2.69965E5,1.3781E4,2.06194E5,6.3771E4,1.1323E4,2.458E3,1.34183E5,7.2011E4,4.1677E4,2.2094E4,6.956E3,4.367E3,2.383E3,7.5E1,7.3453E4,6.073E4,6.6152E4,5.859E3,1.9586E4,2.2091E4,2.1072E4,1.022E3,6.673E3,2.83E2,4.364E3,3E0,1.728E3,6.55E2,7.3E1,2E0,1.6561E4,5.6892E4,1.909E4,4.164E4,4.094E4,2.5212E4,5.14E3,7.19E2,8.95E2,1.8691E4,2.2061E4,3E1,4.671E3,1.6401E4,3.63E2,6.59E2,1.804E3,4.869E3,1E1,2.73E2,1.287E3,3.077E3,7.6E2,9.68E2,6.2E2,3.5E1,5.6E1,1.7E1,6.535E3,1.0026E4,1.4534E4,4.2358E4,7.629E3,1.1461E4,3.7167E4,4.473E3,3.7796E4,3.144E3,1.062E3,2.415E4,4.274E3,8.66E2,5.4E1,6.65E2,3.67E2,5.28E2,1.7705E4,9.86E2,2.097E4,1.091E3,1.9E1,1.1E1,8.81E2,3.79E3,4.637E3,1.1764E4,2.21E2,1.42E2,3.8E1,6.21E2,2.55E2,1.549E3,2.833E3,2.036E3,3E0,7E0,1.88E2,8.5E1,3.2E1,1.255E3,1.688E3,1.389E3,6.84E2,7.6E1,1.26E2,8.42E2,2.29E2,3.91E2,1.1E1,2.4E1,4E0,5.2E1,7E0,1E1],"tree_param":{"num_deleted":"0","num_feature":"10","num_nodes":"115","size_leaf_vector":"0"}},{"base_weights":[5.157888E0,3.4285874E0,2.9831964E1,1.7007334E0,8.9406395E0,2.4461187E1,6.330357E1,8.3761865E-1,3.238535E0,7.129205E0,1.2643245E1,2.0240389E1,3.4546074E1,6.1058792E1,2.3396121E2,5.0015056E-1,1.516852E0,2.5320225E0,4.7006397E0,6.8128195E0,1.4913065E1,1.2113569E1,2.2960491E1,1.5245799E1,2.2544357E1,3.4028683E1,8.03774E1,4.716424E1,8.075518E1,1.8995189E2,4.42423E2,5.326134E-2,7.4397856E-1,9.942268E-1,2.0692883E0,2.9434376E0,4.8348346E-1,3.7263675E0,5.9885216E0,8.732815E0,5.617053E0,1.213922E1,2.5215202E1,1.2085249E1,1.9473634E2,3.2211838E1,7.8256273E0,-5.4272857E0,1.5874185E1,2.146209E1,3.8946655E1,1.9925346E1,3.5497303E1,2.0411928E2,7.1345345E1,3.4479836E1,5.6189026E1,7.743612E1,1.4545496E2,5.5503983E1,2.0333035E2,5.2597266E2,5.4112183E1,-1.6622633E-1,2.4756372E-1,1.4518069E-1,9.6386087E-1,7.849716E-1,1.8584205E0,1.8713084E0,3.5162401E0,1.1704508E-2,3.1447244E0,6.782856E-1,-3.299604E0,4.5421586E0,2.112363E0,5.3204274E0,9.815496E0,9.592317E0,5.5723805E0,3.853925E0,8.382457E0,1.1258396E1,5.203484E1,3.8396957E1,1.91193E1,1.8328163E1,1.1295439E1,1.1148634E1,3.7003334E1,1.3863858E1,-9.755155E-1,4.7470848E1,-9.647061E0,2.1326012E1,1.4621151E1,2.2688818E1,1.1543223E1,4.5936626E1,4.2063417E0,2.960424E1,9.890295E0,3.7268276E1,2.59616E1,2.605722E1,2.801217E2,7.6188545E1,-3.3986397E0,5.122568E1,2.9776619E1,5.4519352E1,1.21015915E2,9.141302E1,6.489541E1,1.559874E2,5.84717E1,2.1375584E2,5.214958E1],"categories":[],"categories_nodes":[],"categories_segments":[],"categories_sizes":[],"default_left":[true,true,true,true,true,true,true,true,true,true,true,true,true,true,true,true,true,true,true,true,true,true,true,true,true,true,true,true,true,true,true,true,true,true,true,true,true,true,true,true,true,true,true,true,false,true,true,true,true,true,true,true,true,true,true,true,true,true,true,false,true,false,false,false,false,false,false,false,false,false,false,false,false,false,false,false,false,false,false,false,false,false,false,false,false,false,false,false,false,false,false,false,false,false,false,false,false,false,false,false,false,false,false,false,false,false,false,false,false,false,false,false,false,false,false,false,false,false,false],"id":5,"left_children":[1,3,5,7,9,11,13,15,17,19,21,23,25,27,29,31,33,35,37,39,41,43,45,47,49,51,53,55,57,59,61,63,65,67,69,71,73,75,77,79,81,83,85,87,-1,89,91,93,95,97,99,101,103,105,107,109,111,113,115,-1,117,-1,-1,-1,-1,-1,-1,-1,-1,-1,-1,-1,-1,-1,-1,-1,-1,-1,-1,-1,-1,-1,-1,-1,-1,-1,-1,-1,-1,-1,-1,-1,-1,-1,-1,-1,-1,-1,-1,-1,-1,-1,-1,-1,-1,-1,-1,-1,-1,-1,-1,-1,-1,-1,-1,-1,-1,-1,-1],"loss_changes":[1.2107068E7,2.5254122E6,3.339271E6,2.6795512E5,4.243505E5,6.81042E5,9.6987E5,2.9639172E4,7.495775E4,1.0455325E5,1.13324E5,1.29609E5,1.09284E5,6.90498E5,2.187115E5,9.413262E3,1.238968E4,4.1239312E4,2.9643656E4,9.3709625E4,4.7102406E4,9.992225E4,1.4172606E5,4.6436875E4,1.3631375E5,9.6082E4,4.355453E4,1.6862875E5,2.137865E5,4.0876812E4,1.3375469E5,1.300646E3,7.3590137E3,3.9872637E3,5.9702734E3,2.4046719E4,6.034202E3,1.7717E4,2.5978344E4,4.2515125E4,1.2268081E5,4.5413766E4,2.7470375E4,9.728825E4,0E0,6.3068812E4,2.0526854E4,2.4119088E4,2.3345125E4,8.79545E4,1.156385E5,4.2735E4,7.04835E4,3.330025E4,1.8358953E4,4.7463E4,8.7463E4,1.69173E5,3.6686625E4,0E0,2.983225E4,0E0,0E0,0E0,0E0,0E0,0E0,0E0,0E0,0E0,0E0,0E0,0E0,0E0,0E0,0E0,0E0,0E0,0E0,0E0,0E0,0E0,0E0,0E0,0E0,0E0,0E0,0E0,0E0,0E0,0E0,0E0,0E0,0E0,0E0,0E0,0E0,0E0,0E0,0E0,0E0,0E0,0E0,0E0,0E0,0E0,0E0,0E0,0E0,0E0,0E0,0E0,0E0,0E0,0E0,0E0,0E0,0E0,0E0],"parents":[2147483647,0,0,1,1,2,2,3,3,4,4,5,5,6,6,7,7,8,8,9,9,10,10,11,11,12,12,13,13,14,14,15,15,16,16,17,17,18,18,19,19,20,20,21,21,22,22,23,23,24,24,25,25,26,26,27,27,28,28,29,29,30,30,31,31,32,32,33,33,34,34,35,35,36,36,37,37,38,38,39,39,40,40,41,41,42,42,43,43,45,45,46,46,47,47,48,48,49,49,50,50,51,51,52,52,53,53,54,54,55,55,56,56,57,57,58,58,60,60],"right_children":[2,4,6,8,10,12,14,16,18,20,22,24,26,28,30,32,34,36,38,40,42,44,46,48,50,52,54,56,58,60,62,64,66,68,70,72,74,76,78,80,82,84,86,88,-1,90,92,94,96,98,100,102,104,106,108,110,112,114,116,-1,118,-1,-1,-1,-1,-1,-1,-1,-1,-1,-1,-1,-1,-1,-1,-1,-1,-1,-1,-1,-1,-1,-1,-1,-1,-1,-1,-1,-1,-1,-1,-1,-1,-1,-1,-1,-1,-1,-1,-1,-1,-1,-1,-1,-1,-1,-1,-1,-1,-1,-1,-1,-1,-1,-1,-1,-1,-1,-1],"split_conditions":[9.288141E1,3.1041668E1,2.573875E2,1.2160256E1,6.0160255E1,1.58525E2,8.162916E2,1.220025E3,2.17202E3,7.56825E3,3.295E2,2.262855E3,2.964345E4,6.7407197E3,5.8344316E4,3.9615383E0,7.080128E0,4.5E0,2.1658333E1,1.25E1,3.275E2,2.4172223E2,2.75E1,7.4265E2,3.295E2,2.3935E3,1.7307692E2,2.6537415E2,5.149605E4,1.9942164E4,2.85E1,2.6833334E0,3.8015002E2,3.215E2,3.265E2,2.7093E2,3.7699997E1,4.5E0,5.7308E3,4.5E0,2.35E1,8.475E1,2.65E1,3.5E0,5.8420906E1,5.7925003E1,2.95E1,2.5E0,7.5E0,3.165E2,2.75E1,2.5E0,3.165E2,3.205134E4,2.95E1,2.6222205E2,4.614167E2,1.35E1,2.9E1,1.6651196E1,5.118157E4,1.5779181E2,1.6233656E1,-4.9867902E-2,7.4269116E-2,4.355421E-2,2.8915828E-1,2.3549148E-1,5.575262E-1,5.6139255E-1,1.054872E0,3.5113527E-3,9.434174E-1,2.0348568E-1,-9.898812E-1,1.3626477E0,6.3370895E-1,1.5961283E0,2.944649E0,2.877695E0,1.6717142E0,1.1561775E0,2.5147371E0,3.377519E0,1.5610453E1,1.1519088E1,5.7357903E0,5.4984493E0,3.3886318E0,3.3445904E0,1.1101001E1,4.1591578E0,-2.9265466E-1,1.4241255E1,-2.8941185E0,6.397804E0,4.3863454E0,6.806646E0,3.4629672E0,1.3780989E1,1.2619026E0,8.881272E0,2.9670887E0,1.1180483E1,7.7884803E0,7.8171663E0,8.4036514E1,2.2856564E1,-1.0195919E0,1.5367705E1,8.932986E0,1.6355806E1,3.6304775E1,2.7423906E1,1.9468624E1,4.679622E1,1.754151E1,6.4126755E1,1.5644874E1],"split_indices":[8,8,9,8,8,9,8,0,0,0,3,0,0,0,0,8,8,4,9,2,3,9,2,0,3,0,9,8,0,0,2,8,0,3,3,0,9,4,0,4,2,9,2,2,0,9,2,2,2,3,2,4,3,0,2,9,9,2,2,0,0,0,0,0,0,0,0,0,0,0,0,0,0,0,0,0,0,0,0,0,0,0,0,0,0,0,0,0,0,0,0,0,0,0,0,0,0,0,0,0,0,0,0,0,0,0,0,0,0,0,0,0,0,0,0,0,0,0,0],"split_type":[0,0,0,0,0,0,0,0,0,0,0,0,0,0,0,0,0,0,0,0,0,0,0,0,0,0,0,0,0,0,0,0,0,0,0,0,0,0,0,0,0,0,0,0,0,0,0,0,0,0,0,0,0,0,0,0,0,0,0,0,0,0,0,0,0,0,0,0,0,0,0,0,0,0,0,0,0,0,0,0,0,0,0,0,0,0,0,0,0,0,0,0,0,0,0,0,0,0,0,0,0,0,0,0,0,0,0,0,0,0,0,0,0,0,0,0,0,0,0],"sum_hessian":[2.83746E5,2.65163E5,1.8583E4,2.01881E5,6.3282E4,1.6015E4,2.568E3,1.29307E5,7.2574E4,4.2495E4,2.0787E4,1.1292E4,4.723E3,2.536E3,3.2E1,8.6388E4,4.2919E4,4.8932E4,2.3642E4,4.0837E4,1.658E3,1.9774E4,1.013E3,3.567E3,7.725E3,4.672E3,5.1E1,1.489E3,1.047E3,2.8E1,4E0,3.0496E4,5.5892E4,2.2056E4,2.0863E4,4.0748E4,8.184E3,1.3462E4,1.018E4,1.567E4,2.5167E4,1.308E3,3.5E2,1.9772E4,2E0,6.28E2,3.85E2,1.05E2,3.462E3,7.249E3,4.76E2,4.42E2,4.23E3,2E0,4.9E1,6.21E2,8.68E2,9.98E2,4.9E1,3E0,2.5E1,3E0,1E0,1.432E4,1.6176E4,1.5012E4,4.088E4,1.7758E4,4.298E3,1.8354E4,2.509E3,2.618E3,3.813E4,7.784E3,4E2,8.941E3,4.521E3,8.669E3,1.511E3,1.2318E4,3.352E3,1.537E4,9.797E3,1.281E3,2.7E1,1.09E2,2.41E2,2.218E3,1.7554E4,1.17E2,5.11E2,2.28E2,1.57E2,7E0,9.8E1,6.44E2,2.818E3,6.45E3,7.99E2,3.96E2,8E1,2.24E2,2.18E2,3.565E3,6.65E2,1E0,1E0,4.6E1,3E0,1.34E2,4.87E2,8.48E2,2E1,4.69E2,5.29E2,4.3E1,6E0,2.3E1,2E0],"tree_param":{"num_deleted":"0","num_feature":"10","num_nodes":"119","size_leaf_vector":"0"}},{"base_weights":[3.613306E0,2.6889493E0,2.7019257E1,1.56295E0,8.845678E0,2.3937634E1,6.355096E1,8.538151E-1,3.5948064E0,7.173396E0,1.1986835E1,1.9281069E1,3.2094177E1,6.207043E1,4.5494098E2,4.8143283E-1,1.6176268E0,3.2262878E0,5.902127E0,6.3871236E0,1.09023905E1,1.16008E1,2.6622229E1,1.8541243E1,4.2469612E1,3.556982E1,1.7403017E1,5.792268E1,1.5263377E2,3.569939E-1,1.2820776E0,1.330308E0,3.3735912E0,5.0717707E0,2.7749658E0,8.078453E0,3.6598752E0,8.081431E0,2.9285862E0,1.3269339E1,3.639857E0,1.7785635E1,1.0816599E1,2.051024E1,4.0315434E1,1.9578766E1,5.870842E0,1.3845105E2,3.8690037E1,2.7904634E1,5.8031902E1,-4.577966E1,1.915571E1,5.3339714E1,7.794934E1,1.2556334E2,2.670587E2,-5.4551113E-2,5.054668E-1,8.8887876E-1,2.2561233E0,1.4545666E0,-7.593376E-1,2.895032E0,6.576269E0,6.033232E0,1.7349912E0,-6.831227E-1,3.0267107E0,5.027623E0,1.1044645E1,2.6461964E0,9.922379E0,8.620753E0,4.2639527E-1,1.7020425E0,6.39529E0,1.2922741E1,8.183255E1,7.1258154E0,1.3466334E0,9.350345E0,2.2901623E1,9.885575E0,1.5016686E1,1.3372191E1,3.658215E1,6.7472374E1,3.0373297E1,1.5272227E1,2.2094168E1,9.744932E0,9.029986E-2,2.2897502E2,1.3314318E1,1.2825198E2,3.6060307E1,2.681529E1,9.793241E1,4.478837E1,7.2736694E1,-6.6788506E1,-2.2327042E-1,1.52055E1,2.930756E1,4.2731712E1,6.3283825E1,9.8795746E1,6.1581425E1,7.029109E1,1.4853627E2,3.0207227E2,4.599536E1],"categories":[],"categories_nodes":[],"categories_segments":[],"categories_sizes":[],"default_left":[true,true,true,true,true,true,true,true,true,true,true,true,true,true,false,true,true,true,true,true,true,true,true,true,true,true,true,true,true,true,true,true,true,true,true,true,true,true,true,true,true,true,true,true,true,true,true,true,true,true,true,true,true,true,true,true,true,false,false,false,false,false,false,false,false,false,false,false,false,false,false,false,false,false,false,false,false,false,false,false,false,false,false,false,false,false,false,false,false,false,false,false,false,false,false,false,false,false,false,false,false,false,false,false,false,false,false,false,false,false,false,false,false],"id":6,"left_children":[1,3,5,7,9,11,13,15,17,19,21,23,25,27,-1,29,31,33,35,37,39,41,43,45,47,49,51,53,55,57,59,61,63,65,67,69,71,73,75,77,79,81,83,85,87,89,91,93,95,97,99,101,103,105,107,109,111,-1,-1,-1,-1,-1,-1,-1,-1,-1,-1,-1,-1,-1,-1,-1,-1,-1,-1,-1,-1,-1,-1,-1,-1,-1,-1,-1,-1,-1,-1,-1,-1,-1,-1,-1,-1,-1,-1,-1,-1,-1,-1,-1,-1,-1,-1,-1,-1,-1,-1,-1,-1,-1,-1,-1,-1],"loss_changes":[6.13892E6,1.8923292E6,1.212059E6,3.3249706E5,2.216075E5,3.770305E5,4.5735225E5,4.8654938E4,5.0745E4,8.06895E4,8.25225E4,1.07841E5,1.83814E5,3.051895E5,0E0,1.145715E4,2.8281516E4,4.2865625E4,4.0087844E4,1.332875E5,8.2378E4,6.9097E4,3.0641594E4,8.057425E4,6.538328E4,5.011345E5,7.761966E4,6.9359E4,7.797831E4,6.0817617E3,5.9225215E3,1.2512141E4,1.2063E4,3.244036E4,3.601525E4,3.7689312E4,2.5690168E4,6.3034812E4,3.1803059E4,8.487269E4,9.42342E3,6.909256E4,4.9439125E4,2.9568E4,2.9000422E4,6.111625E4,1.0434884E4,7.624647E4,3.9889156E4,1.635975E5,1.41242E5,1.8169746E4,2.6623172E4,6.6389875E4,4.407425E4,2.8921969E4,3.2547406E4,0E0,0E0,0E0,0E0,0E0,0E0,0E0,0E0,0E0,0E0,0E0,0E0,0E0,0E0,0E0,0E0,0E0,0E0,0E0,0E0,0E0,0E0,0E0,0E0,0E0,0E0,0E0,0E0,0E0,0E0,0E0,0E0,0E0,0E0,0E0,0E0,0E0,0E0,0E0,0E0,0E0,0E0,0E0,0E0,0E0,0E0,0E0,0E0,0E0,0E0,0E0,0E0,0E0,0E0,0E0,0E0],"parents":[2147483647,0,0,1,1,2,2,3,3,4,4,5,5,6,6,7,7,8,8,9,9,10,10,11,11,12,12,13,13,15,15,16,16,17,17,18,18,19,19,20,20,21,21,22,22,23,23,24,24,25,25,26,26,27,27,28,28,29,29,30,30,31,31,32,32,33,33,34,34,35,35,36,36,37,37,38,38,39,39,40,40,41,41,42,42,43,43,44,44,45,45,46,46,47,47,48,48,49,49,50,50,51,51,52,52,53,53,54,54,55,55,56,56],"right_children":[2,4,6,8,10,12,14,16,18,20,22,24,26,28,-1,30,32,34,36,38,40,42,44,46,48,50,52,54,56,58,60,62,64,66,68,70,72,74,76,78,80,82,84,86,88,90,92,94,96,98,100,102,104,106,108,110,112,-1,-1,-1,-1,-1,-1,-1,-1,-1,-1,-1,-1,-1,-1,-1,-1,-1,-1,-1,-1,-1,-1,-1,-1,-1,-1,-1,-1,-1,-1,-1,-1,-1,-1,-1,-1,-1,-1,-1,-1,-1,-1,-1,-1,-1,-1,-1,-1,-1,-1,-1,-1,-1,-1,-1,-1],"split_conditions":[1.26875E2,4.821591E1,3.506891E2,2.0392307E1,7.7075E1,2.147625E2,1.434631E5,1.0289916E1,4.12349E3,2.55E1,1.364552E4,1.857426E4,3.165E2,8.516459E2,1.364823E2,2.170385E3,3.07595E3,6.5E0,4.5E0,1.75E1,2.95E1,3.5E0,3.275E2,5.5E0,1.8626012E4,2.975E2,1.952185E3,5.2253613E2,5.519598E4,3.4641027E0,3.135E2,5.5E0,2.1788889E1,4.5E0,4.0615253E2,2.5E0,4.59E1,3.165E2,2.35E1,1.9820035E4,9.5E0,1.5E0,2.55E1,1.2594231E2,2.65E1,2.9590898E3,1.05E1,9E0,8.136539E1,2.934477E4,1.05E1,5.5E0,2.55E1,2.885E2,1.25E1,1.05E1,1.186368E5,-1.6365334E-2,1.5164006E-1,2.6666364E-1,6.76837E-1,4.3637E-1,-2.278013E-1,8.685096E-1,1.9728808E0,1.8099698E0,5.204974E-1,-2.0493682E-1,9.080133E-1,1.5082871E0,3.3133938E0,7.9385895E-1,2.9767137E0,2.586226E0,1.2791859E-1,5.106128E-1,1.9185871E0,3.8768225E0,2.4549767E1,2.1377447E0,4.0399006E-1,2.8051035E0,6.870487E0,2.9656727E0,4.5050063E0,4.0116577E0,1.0974646E1,2.0241713E1,9.111989E0,4.5816684E0,6.6282506E0,2.9234798E0,2.7089959E-2,6.869251E1,3.9942954E0,3.8475597E1,1.0818092E1,8.044587E0,2.9379725E1,1.3436511E1,2.1821009E1,-2.0036552E1,-6.698113E-2,4.5616503E0,8.792269E0,1.2819514E1,1.8985147E1,2.9638725E1,1.8474428E1,2.1087328E1,4.4560883E1,9.062168E1,1.3798609E1],"split_indices":[9,8,8,8,9,9,0,9,0,2,0,0,3,9,0,0,0,2,4,2,2,2,3,4,0,3,0,9,0,9,3,4,9,4,0,4,9,3,2,0,1,2,2,8,2,0,1,2,8,0,2,4,2,3,2,2,0,0,0,0,0,0,0,0,0,0,0,0,0,0,0,0,0,0,0,0,0,0,0,0,0,0,0,0,0,0,0,0,0,0,0,0,0,0,0,0,0,0,0,0,0,0,0,0,0,0,0,0,0,0,0,0,0],"split_type":[0,0,0,0,0,0,0,0,0,0,0,0,0,0,0,0,0,0,0,0,0,0,0,0,0,0,0,0,0,0,0,0,0,0,0,0,0,0,0,0,0,0,0,0,0,0,0,0,0,0,0,0,0,0,0,0,0,0,0,0,0,0,0,0,0,0,0,0,0,0,0,0,0,0,0,0,0,0,0,0,0,0,0,0,0,0,0,0,0,0,0,0,0,0,0,0,0,0,0,0,0,0,0,0,0,0,0,0,0,0,0,0,0],"sum_hessian":[2.83746E5,2.72967E5,1.0779E4,2.30764E5,4.2203E4,9.942E3,8.37E2,1.71063E5,5.9701E4,2.7543E4,1.466E4,6.331E3,3.611E3,8.35E2,2E0,1.14999E5,5.6064E4,5.1481E4,8.22E3,2.2749E4,4.794E3,1.4285E4,3.75E2,6.137E3,1.94E2,2.919E3,6.92E2,8E2,3.5E1,9.9531E4,1.5468E4,4.8182E4,7.882E3,1.0114E4,4.1367E4,4.17E3,4.05E3,1.5268E4,7.481E3,3.615E3,1.179E3,1.605E3,1.268E4,2.61E2,1.14E2,5.672E3,4.65E2,6E0,1.88E2,2.178E3,7.41E2,1.8E1,6.74E2,6.54E2,1.46E2,3E1,5E0,2.6388E4,7.3143E4,1.1021E4,4.447E3,4.5478E4,2.704E3,6.859E3,1.023E3,7.851E3,2.263E3,2.807E3,3.856E4,2.057E3,2.113E3,3.487E3,5.63E2,1.4263E4,1.005E3,5.527E3,1.954E3,3.598E3,1.7E1,4.67E2,7.12E2,6.07E2,9.98E2,1.0382E4,2.298E3,1.82E2,7.9E1,2.9E1,8.5E1,2.094E3,3.578E3,2.78E2,1.87E2,3E0,3E0,4E0,1.84E2,2.146E3,3.2E1,3.92E2,3.49E2,1.2E1,6E0,4.87E2,1.87E2,3.19E2,3.35E2,6.2E1,8.4E1,1E1,2E1,4E0,1E0],"tree_param":{"num_deleted":"0","num_feature":"10","num_nodes":"113","size_leaf_vector":"0"}},{"base_weights":[2.5317879E0,1.7145469E0,1.5836832E1,8.2666343E-1,4.701599E0,1.375924E1,4.0737328E1,3.948794E-1,1.6549802E0,4.438643E0,1.3063539E1,1.1377216E1,2.037571E1,3.9936707E1,3.639528E2,4.0457785E-1,-1.1434938E1,1.4846344E0,3.8573189E0,-1.9326681E-1,4.806643E0,2.0031473E1,8.356594E0,1.0916825E1,2.940444E1,1.6276276E1,2.6504519E1,3.7846348E1,1.0812156E2,2.688209E-1,1.0460656E0,3.4329438E0,-1.3793805E1,1.7998228E0,-3.5033035E-1,5.761337E0,1.3994449E0,-1.2885357E1,3.5795096E-1,6.681672E0,3.984544E0,1.8914106E1,9.358191E1,3.238467E1,7.246358E0,1.8323936E1,9.986356E0,2.7847178E1,1.2872571E2,2.3881699E1,1.1779631E1,3.7757217E1,1.3928803E1,5.9572136E1,3.2022717E1,9.012041E1,2.341009E2,2.9773724E-1,-2.2360878E0,1.338038E0,1.7811564E-1,-3.4952974E-1,1.1824291E1,-9.268882E0,-1.5710151E1,1.6992861E0,7.8977675E0,-1.2846903E0,9.9264914E-1,6.0012245E0,-1.0454014E1,3.5133135E0,4.9098738E-2,-2.0697134E0,-1.9021242E1,1.0562892E1,8.286487E-2,4.885922E0,8.161189E0,2.7535076E0,6.2630773E0,5.9112296E0,2.2593277E1,-1.5539901E1,1.3644507E2,1.7763859E1,5.8861267E1,3.4487915E1,6.9041357E0,9.423488E0,2.495363E1,1.2856508E1,7.333105E0,2.6687243E1,9.947107E1,2.6529259E1,2.5672922E-1,-1.0940212E1,1.3223259E1,3.0931147E1,5.26321E1,-2.8954012E1,1.5067437E1,6.82189E1,1.5966972E1,6.574814E0,3.6675476E1,1.2419275E2,6.0060135E1,2.860705E2,3.909607E1],"categories":[],"categories_nodes":[],"categories_segments":[],"categories_sizes":[],"default_left":[true,true,true,true,true,true,true,true,true,true,true,true,true,true,false,true,true,true,true,true,true,true,true,true,true,true,true,true,true,true,true,true,true,true,true,true,true,true,true,true,true,true,true,true,true,true,true,true,false,true,true,true,true,true,true,true,true,false,false,false,false,false,false,false,false,false,false,false,false,false,false,false,false,false,false,false,false,false,false,false,false,false,false,false,false,false,false,false,false,false,false,false,false,false,false,false,false,false,false,false,false,false,false,false,false,false,false,false,false,false,false],"id":7,"left_children":[1,3,5,7,9,11,13,15,17,19,21,23,25,27,-1,29,31,33,35,37,39,41,43,45,47,49,51,53,55,57,59,61,63,65,67,69,71,73,75,77,79,81,83,85,87,89,91,93,-1,95,97,99,101,103,105,107,109,-1,-1,-1,-1,-1,-1,-1,-1,-1,-1,-1,-1,-1,-1,-1,-1,-1,-1,-1,-1,-1,-1,-1,-1,-1,-1,-1,-1,-1,-1,-1,-1,-1,-1,-1,-1,-1,-1,-1,-1,-1,-1,-1,-1,-1,-1,-1,-1,-1,-1,-1,-1,-1,-1],"loss_changes":[3.0852745E6,7.089913E5,8.4889675E5,7.3702875E4,1.3462888E5,2.3865125E5,3.12554E5,1.554643E4,2.648536E4,1.0123025E5,6.1065875E4,9.2194375E4,1.00343625E5,1.7578175E5,0E0,1.1787125E4,3.9402734E3,3.790922E4,2.3714031E4,3.0591588E4,8.4779875E4,6.003147E4,2.9536688E4,7.4741E4,3.9258688E4,8.200119E4,2.2674025E5,1.532095E5,6.2810312E4,8.0923457E3,5.9908047E3,5.1197375E2,6.868301E2,3.4279734E4,1.20589E4,1.117218E4,6.3195894E3,1.2038797E4,1.1764256E4,4.4510062E4,1.0727244E5,3.5363562E4,5.357071E4,1.792275E4,9.718492E3,7.128166E4,7.3468875E4,2.0109078E4,0E0,5.5849E4,4.9802344E4,8.4373875E4,3.7545406E4,9.618806E4,1.14491375E5,2.7364562E4,2.9353047E4,0E0,0E0,0E0,0E0,0E0,0E0,0E0,0E0,0E0,0E0,0E0,0E0,0E0,0E0,0E0,0E0,0E0,0E0,0E0,0E0,0E0,0E0,0E0,0E0,0E0,0E0,0E0,0E0,0E0,0E0,0E0,0E0,0E0,0E0,0E0,0E0,0E0,0E0,0E0,0E0,0E0,0E0,0E0,0E0,0E0,0E0,0E0,0E0,0E0,0E0,0E0,0E0,0E0,0E0],"parents":[2147483647,0,0,1,1,2,2,3,3,4,4,5,5,6,6,7,7,8,8,9,9,10,10,11,11,12,12,13,13,15,15,16,16,17,17,18,18,19,19,20,20,21,21,22,22,23,23,24,24,25,25,26,26,27,27,28,28,29,29,30,30,31,31,32,32,33,33,34,34,35,35,36,36,37,37,38,38,39,39,40,40,41,41,42,42,43,43,44,44,45,45,46,46,47,47,49,49,50,50,51,51,52,52,53,53,54,54,55,55,56,56],"right_children":[2,4,6,8,10,12,14,16,18,20,22,24,26,28,-1,30,32,34,36,38,40,42,44,46,48,50,52,54,56,58,60,62,64,66,68,70,72,74,76,78,80,82,84,86,88,90,92,94,-1,96,98,100,102,104,106,108,110,-1,-1,-1,-1,-1,-1,-1,-1,-1,-1,-1,-1,-1,-1,-1,-1,-1,-1,-1,-1,-1,-1,-1,-1,-1,-1,-1,-1,-1,-1,-1,-1,-1,-1,-1,-1,-1,-1,-1,-1,-1,-1,-1,-1,-1,-1,-1,-1,-1,-1,-1,-1,-1,-1],"split_conditions":[9.9225E1,3.3175003E1,3.138375E2,1.3051315E1,9.284035E3,1.9670834E2,1.434631E5,3.7083332E1,3.285E2,6.31705E2,4.5E0,1.7605809E4,2.965E2,8.516459E2,1.09185844E2,1.9751E3,5E-1,3.165E2,2.75E1,9.0125E1,2.655E2,4.9350574E4,2.51E2,3.5E0,6.06929E4,2.615E2,3.165E2,2.615E2,3.28E2,1.7784615E1,4.5E0,3.916015E3,4.122619E1,3.155E2,1.95E1,4.5541664E1,5E-1,2.6833332E1,1.5E0,5.56375E1,2.35E1,1.5E0,5.409091E1,7.325E1,2.5490385E1,1.5E0,4.5E0,1.9525E2,3.8617714E1,5.5E0,2.34845E3,6.378895E3,1.830685E3,5.5E0,9.5E0,2.685E2,1.0947549E5,8.9321174E-2,-6.708264E-1,4.014114E-1,5.3434692E-2,-1.0485893E-1,3.5472875E0,-2.7806647E0,-4.7130456E0,5.0978583E-1,2.3693304E0,-3.854071E-1,2.9779476E-1,1.8003675E0,-3.1362042E0,1.053994E0,1.4729622E-2,-6.2091404E-1,-5.7063727E0,3.1688678E0,2.4859464E-2,1.4657767E0,2.4483569E0,8.260523E-1,1.8789233E0,1.773369E0,6.777983E0,-4.6619706E0,4.093352E1,5.329158E0,1.765838E1,1.03463745E1,2.071241E0,2.8270464E0,7.486089E0,3.8569527E0,2.1999316E0,8.006173E0,2.9841322E1,7.958778E0,7.701877E-2,-3.2820637E0,3.9669778E0,9.279345E0,1.578963E1,-8.686204E0,4.5202312E0,2.0465672E1,4.790092E0,1.9724442E0,1.1002644E1,3.7257828E1,1.8018042E1,8.582115E1,1.1728821E1],"split_indices":[9,9,9,9,0,9,0,8,3,0,4,0,3,9,0,0,4,3,2,0,3,0,3,2,0,3,3,3,3,8,4,0,8,3,2,8,4,8,2,9,2,4,8,9,8,2,4,9,0,4,0,0,0,4,1,3,0,0,0,0,0,0,0,0,0,0,0,0,0,0,0,0,0,0,0,0,0,0,0,0,0,0,0,0,0,0,0,0,0,0,0,0,0,0,0,0,0,0,0,0,0,0,0,0,0,0,0,0,0,0,0],"split_type":[0,0,0,0,0,0,0,0,0,0,0,0,0,0,0,0,0,0,0,0,0,0,0,0,0,0,0,0,0,0,0,0,0,0,0,0,0,0,0,0,0,0,0,0,0,0,0,0,0,0,0,0,0,0,0,0,0,0,0,0,0,0,0,0,0,0,0,0,0,0,0,0,0,0,0,0,0,0,0,0,0,0,0,0,0,0,0,0,0,0,0,0,0,0,0,0,0,0,0,0,0,0,0,0,0,0,0,0,0,0,0],"sum_hessian":[2.83746E5,2.67327E5,1.6419E4,2.06074E5,6.1253E4,1.5156E4,1.263E3,1.35462E5,7.0612E4,5.9387E4,1.866E3,1.1146E4,4.01E3,1.261E3,2E0,1.35352E5,1.1E2,6.5544E4,5.068E3,4.371E3,5.5016E4,7.51E2,1.115E3,1.087E4,2.76E2,2.405E3,1.605E3,1.225E3,3.6E1,1.11712E5,2.364E4,1.5E1,9.5E1,5.5936E4,9.608E3,2.855E3,2.213E3,1.81E2,4.19E3,1.6767E4,3.8249E4,7.41E2,1E1,4.8E1,1.067E3,1.211E3,9.659E3,2.73E2,3E0,8.92E2,1.513E3,8.46E2,7.59E2,2.57E2,9.68E2,3.3E1,3E0,1.10438E5,1.274E3,1.7689E4,5.951E3,1.1E1,4E0,3E1,6.5E1,5.503E4,9.06E2,5.666E3,3.942E3,2.814E3,4.1E1,8.62E2,1.351E3,6.6E1,1.15E2,1.09E2,4.081E3,7.576E3,9.191E3,2.4834E4,1.3415E4,1.64E2,5.77E2,3E0,7E0,3.2E1,1.6E1,1.2E1,1.055E3,5.18E2,6.93E2,4.638E3,5.021E3,2.7E2,3E0,8.02E2,9E1,9E1,1.423E3,5.82E2,2.64E2,1.9E1,7.4E2,2.14E2,4.3E1,1.5E2,8.18E2,1.4E1,1.9E1,2E0,1E0],"tree_param":{"num_deleted":"0","num_feature":"10","num_nodes":"111","size_leaf_vector":"0"}},{"base_weights":[1.7740303E0,1.3532776E0,1.4899854E1,7.6520634E-1,4.6873984E0,1.3338467E1,4.066882E1,4.0881553E-1,1.8578199E0,1.8157665E0,5.3345714E0,8.527273E0,1.5675011E1,3.9087685E1,2.9116223E2,4.0291585E-2,6.9909674E-1,2.0943594E0,-2.074586E0,-1.8135075E1,2.041664E0,4.899891E0,1.0761058E1,-2.465655E1,9.082317E0,1.5260924E1,4.8604763E1,3.6518295E1,1.0600416E2,5.6597244E-2,-4.5986376E0,8.7316823E-1,-6.1622867E-3,1.8567078E0,4.7862415E0,-1.2658827E0,-8.186418E0,-1.0903902E1,-2.2742054E1,1.9784787E0,6.938526E1,5.576437E0,-1.0895839E0,1.4530146E1,9.251831E-1,-1.5412604E1,-7.263617E1,1.4529984E1,5.5033517E0,1.2589202E1,1.9676506E1,1.546134E2,3.605452E1,2.0798256E1,4.4362545E1,7.208925E1,1.7976509E2,-2.6592246E-1,1.6366242E-1,-6.4044375E0,-3.3887892E0,6.0583955E-1,1.8874307E0,-6.080076E-1,2.9840657E-1,2.2918293E0,-7.436213E-1,2.7129514E0,9.100911E0,-3.5927865E-1,-2.3970895E0,-8.867694E0,4.481907E1,-1.1795869E1,-6.4190326E0,-2.0989075E1,-3.0762331E1,5.4187984E0,1.2372003E0,1.01614395E2,-7.4583793E0,5.2012525E0,2.0544386E1,-3.4864004E0,2.9392097E0,1.3602129E1,4.126233E1,5.714947E-1,1.2266193E2,3.1105354E1,-1.7455324E1,-8.1664345E1,-9.233551E0,1.3407316E1,9.745165E1,-1.1213453E1,7.259254E0,1.522822E1,2.5625083E0,2.6597013E1,1.1567665E1,3.811042E1,2.9724725E2,2.2869133E2,2.9258905E1,-6.2855602E1,2.4954874E1,5.1781628E1,3.0920723E1,1.15995605E2,1.1612086E1,2.0809052E2,3.323169E1],"categories":[],"categories_nodes":[],"categories_segments":[],"categories_sizes":[],"default_left":[true,true,true,true,true,true,true,true,true,true,true,true,true,true,false,true,true,true,true,true,true,true,true,true,true,true,true,true,true,true,true,true,true,true,true,true,true,true,true,true,true,true,true,true,true,true,true,true,true,true,true,true,true,true,true,true,true,false,false,false,false,false,false,false,false,false,false,false,false,false,false,false,false,false,false,false,false,false,false,false,false,false,false,false,false,false,false,false,false,false,false,false,false,false,false,false,false,false,false,false,false,false,false,false,false,false,false,false,false,false,false,false,false],"id":8,"left_children":[1,3,5,7,9,11,13,15,17,19,21,23,25,27,-1,29,31,33,35,37,39,41,43,45,47,49,51,53,55,57,59,61,63,65,67,69,71,73,75,77,79,81,83,85,87,89,91,93,95,97,99,101,103,105,107,109,111,-1,-1,-1,-1,-1,-1,-1,-1,-1,-1,-1,-1,-1,-1,-1,-1,-1,-1,-1,-1,-1,-1,-1,-1,-1,-1,-1,-1,-1,-1,-1,-1,-1,-1,-1,-1,-1,-1,-1,-1,-1,-1,-1,-1,-1,-1,-1,-1,-1,-1,-1,-1,-1,-1,-1,-1],"loss_changes":[1.5670366E6,5.3906156E5,3.5405162E5,9.100686E4,7.659906E4,9.3295E4,1.8783938E5,1.885249E4,5.3473297E4,3.4212438E4,7.9296875E4,5.030386E4,7.5523E4,8.226806E4,0E0,5.873921E3,1.2102352E4,3.4678562E4,1.6112589E4,2.5837012E3,3.1771871E4,1.262185E5,9.244481E4,1.8838932E4,5.2074562E4,6.4931875E4,8.622544E4,5.8760312E4,3.2069594E4,2.672058E3,5.725469E2,2.1436926E4,3.5775293E3,5.637667E4,3.9317883E4,2.954793E3,1.4155871E4,6.4293945E1,7.135547E1,1.9102209E4,1.809411E4,1.5705525E5,3.05434E4,4.4167406E4,2.9725256E4,4.2488555E3,3.2528164E3,9.7372516E4,4.751596E4,9.1117875E4,1.1647244E5,1.0499269E5,7.578113E4,5.824646E4,3.0510625E4,3.5827695E4,1.3837906E4,0E0,0E0,0E0,0E0,0E0,0E0,0E0,0E0,0E0,0E0,0E0,0E0,0E0,0E0,0E0,0E0,0E0,0E0,0E0,0E0,0E0,0E0,0E0,0E0,0E0,0E0,0E0,0E0,0E0,0E0,0E0,0E0,0E0,0E0,0E0,0E0,0E0,0E0,0E0,0E0,0E0,0E0,0E0,0E0,0E0,0E0,0E0,0E0,0E0,0E0,0E0,0E0,0E0,0E0,0E0,0E0],"parents":[2147483647,0,0,1,1,2,2,3,3,4,4,5,5,6,6,7,7,8,8,9,9,10,10,11,11,12,12,13,13,15,15,16,16,17,17,18,18,19,19,20,20,21,21,22,22,23,23,24,24,25,25,26,26,27,27,28,28,29,29,30,30,31,31,32,32,33,33,34,34,35,35,36,36,37,37,38,38,39,39,40,40,41,41,42,42,43,43,44,44,45,45,46,46,47,47,48,48,49,49,50,50,51,51,52,52,53,53,54,54,55,55,56,56],"right_children":[2,4,6,8,10,12,14,16,18,20,22,24,26,28,-1,30,32,34,36,38,40,42,44,46,48,50,52,54,56,58,60,62,64,66,68,70,72,74,76,78,80,82,84,86,88,90,92,94,96,98,100,102,104,106,108,110,112,-1,-1,-1,-1,-1,-1,-1,-1,-1,-1,-1,-1,-1,-1,-1,-1,-1,-1,-1,-1,-1,-1,-1,-1,-1,-1,-1,-1,-1,-1,-1,-1,-1,-1,-1,-1,-1,-1,-1,-1,-1,-1,-1,-1,-1,-1,-1,-1,-1,-1,-1,-1,-1,-1,-1,-1],"split_conditions":[1.441875E2,5.048077E1,4.347917E2,2.21375E1,1.239285E3,3.4116E3,1.434631E5,6.6754384E0,5.5E0,1.3026999E2,3.275E2,6.56825E2,3.314013E4,1.065E3,8.734867E1,1.575E1,4.5E0,3.275E2,6.975694E1,2.5025002E1,1.9475E2,3.165E2,2.75E1,2.3386111E2,2.5E0,2.975E2,9.5E0,8.395675E3,5.519598E4,2.9198718E0,4.864583E0,3.5E0,1.31031E3,3.165E2,3.5E0,1.05E1,1.4350555E4,2.9445E1,1.0445833E2,7.5E0,1.3E1,3.145E2,1.95E1,1.8400605E4,5.274802E4,2.5E0,2.8E1,3.2204318E2,1.927385E3,2.835E2,3.165E2,2.9195E2,3.3303465E4,4E0,2.4614545E4,2.685E2,1.0947549E5,-7.977674E-2,4.9098726E-2,-1.9213313E0,-1.0166368E0,1.8175188E-1,5.662292E-1,-1.8240228E-1,8.9521974E-2,6.875488E-1,-2.230864E-1,8.1388545E-1,2.7302735E0,-1.077836E-1,-7.191269E-1,-2.6603084E0,1.3445722E1,-3.538761E0,-1.9257098E0,-6.296723E0,-9.2287E0,1.6256396E0,3.711601E-1,3.048432E1,-2.2375138E0,1.5603758E0,6.1633162E0,-1.0459201E0,8.817629E-1,4.080639E0,1.2378699E1,1.7144841E-1,3.679858E1,9.331607E0,-5.2365975E0,-2.4499304E1,-2.7700653E0,4.022195E0,2.9235497E1,-3.364036E0,2.1777763E0,4.568466E0,7.687525E-1,7.9791045E0,3.4702997E0,1.1433126E1,8.917418E1,6.86074E1,8.777672E0,-1.8856682E1,7.4864626E0,1.5534489E1,9.276217E0,3.4798683E1,3.4836261E0,6.242716E1,9.969507E0],"split_indices":[8,8,8,9,0,0,0,9,4,0,3,0,0,9,0,8,4,3,9,9,9,3,2,9,4,3,1,0,0,9,9,4,0,3,4,1,0,0,9,2,2,3,2,0,0,2,2,9,0,3,3,9,0,4,0,3,0,0,0,0,0,0,0,0,0,0,0,0,0,0,0,0,0,0,0,0,0,0,0,0,0,0,0,0,0,0,0,0,0,0,0,0,0,0,0,0,0,0,0,0,0,0,0,0,0,0,0,0,0,0,0,0,0],"split_type":[0,0,0,0,0,0,0,0,0,0,0,0,0,0,0,0,0,0,0,0,0,0,0,0,0,0,0,0,0,0,0,0,0,0,0,0,0,0,0,0,0,0,0,0,0,0,0,0,0,0,0,0,0,0,0,0,0,0,0,0,0,0,0,0,0,0,0,0,0,0,0,0,0,0,0,0,0,0,0,0,0,0,0,0,0,0,0,0,0,0,0,0,0,0,0,0,0,0,0,0,0,0,0,0,0,0,0,0,0,0,0,0,0],"sum_hessian":[2.83746E5,2.74934E5,8.812E3,2.33713E5,4.1221E4,8.31E3,5.02E2,1.76231E5,5.7482E4,7.582E3,3.3639E4,2.718E3,5.592E3,5E2,2E0,7.7651E4,9.858E4,5.4221E4,3.261E3,8.4E1,7.498E3,3.1146E4,2.493E3,4.4E1,2.674E3,5.524E3,6.8E1,4.83E2,1.7E1,7.738E4,2.71E2,7.9065E4,1.9515E4,4.9824E4,4.397E3,2.881E3,3.8E2,3.4E1,5E1,7.492E3,6E0,2.7985E4,3.161E3,1.802E3,6.91E2,3.8E1,6E0,1.059E3,1.615E3,3.444E3,2.08E3,6E0,6.2E1,1.62E2,3.21E2,1.3E1,4E0,1.9285E4,5.8095E4,1.07E2,1.64E2,6.2574E4,1.6491E4,6.557E3,1.2958E4,4.2682E4,7.142E3,2.971E3,1.426E3,1.6E3,1.281E3,3.76E2,4E0,2.7E1,7E0,4.4E1,6E0,1.327E3,6.165E3,4E0,2E0,2.7302E4,6.83E2,1.982E3,1.179E3,1.743E3,5.9E1,6.9E2,1E0,1E0,3.7E1,5E0,1E0,1.046E3,1.3E1,1.53E2,1.462E3,2.726E3,7.18E2,1.121E3,9.59E2,4E0,2E0,1E0,6.1E1,7E0,1.55E2,2.05E2,1.16E2,7E0,6E0,3E0,1E0],"tree_param":{"num_deleted":"0","num_feature":"10","num_nodes":"113","size_leaf_vector":"0"}},{"base_weights":[1.2435727E0,7.6257265E-1,7.316938E0,3.565696E-1,2.0625722E0,6.6723104E0,2.918306E1,1.5679136E-1,8.4027565E-1,1.7743045E0,5.883604E0,5.644566E0,1.2259324E1,1.4200493E1,4.559278E1,-4.8860046E-1,2.5429255E-1,9.4638854E-1,-1.5101843E0,4.147596E0,1.3341628E0,5.7744136E0,1.6359538E2,5.2266517E0,1.359204E1,1.3732281E1,-6.104314E0,-8.1694765E0,2.0326336E1,1.0543365E2,3.915365E1,-3.8417885E-1,-3.249817E0,3.5406935E-1,-4.30713E-1,7.75362E-1,3.0843635E0,-1.0910238E0,-2.9270463E0,8.061574E-1,5.002786E0,2.823088E0,7.6212704E-1,8.6776905E0,3.2748272E0,6.79264E0,2.4654973E0,-3.6585119E0,1.857469E1,1.3529871E1,2.0528987E2,-1.4601364E1,5.6931175E1,2.4288462E1,-3.7695656E1,1.752048E1,5.7092255E1,1.3376707E2,-1.6027857E1,3.672989E1,2.3292981E2,2.8798988E-1,-5.664395E-1,6.3746185E0,-3.944089E0,2.3120025E-1,7.795803E-1,-3.758852E-1,-5.7742324E0,-1.7129751E0,8.577428E-1,5.729444E0,1.5439206E0,-1.0358833E0,-6.9641337E0,-1.5284367E0,-6.2387834E0,3.7183726E0,-4.842612E-1,1.0599216E1,4.234621E0,2.6020968E0,1.7063444E1,-7.538594E0,9.923263E-1,8.528609E0,1.0651482E2,2.501489E1,2.898587E0,7.623116E0,-3.3456998E0,-1.596946E0,5.5495896E0,-3.1345022E1,-1.8027294E0,1.1388693E1,3.315815E1,8.768988E0,1.998644E1,6.324289E1,-1.7642126E1,2.386757E0,9.208423E1,-8.288914E1,3.0228046E1,5.5416646E0,-7.25626E1,2.4993454E1,9.140932E0,1.01536125E2,6.304803E0,1.4425122E2,5.052562E1,5.0844147E1,-3.9571087E1,3.1586422E1,8.746212E1],"categories":[],"categories_nodes":[],"categories_segments":[],"categories_sizes":[],"default_left":[true,true,true,true,true,true,true,true,true,true,true,true,true,true,true,true,true,true,true,true,true,true,false,true,true,true,true,true,true,true,true,true,true,true,true,true,true,true,true,true,true,true,true,true,true,true,true,true,true,true,false,true,true,true,true,true,true,true,true,true,false,false,false,false,false,false,false,false,false,false,false,false,false,false,false,false,false,false,false,false,false,false,false,false,false,false,false,false,false,false,false,false,false,false,false,false,false,false,false,false,false,false,false,false,false,false,false,false,false,false,false,false,false,false,false,false,false],"id":9,"left_children":[1,3,5,7,9,11,13,15,17,19,21,23,25,27,29,31,33,35,37,39,41,43,-1,45,47,49,51,53,55,57,59,61,63,65,67,69,71,73,75,77,79,81,83,85,87,89,91,93,95,97,-1,99,101,103,105,107,109,111,113,115,-1,-1,-1,-1,-1,-1,-1,-1,-1,-1,-1,-1,-1,-1,-1,-1,-1,-1,-1,-1,-1,-1,-1,-1,-1,-1,-1,-1,-1,-1,-1,-1,-1,-1,-1,-1,-1,-1,-1,-1,-1,-1,-1,-1,-1,-1,-1,-1,-1,-1,-1,-1,-1,-1,-1,-1,-1],"loss_changes":[8.2890144E5,1.3877208E5,2.9331588E5,1.9360865E4,6.8911375E4,1.1608044E5,1.4588494E5,8.922657E3,1.4607621E4,6.0772562E4,7.463669E4,5.6681125E4,8.507128E4,4.305799E4,1.0530375E5,5.364586E3,8.419492E3,2.0486102E4,1.499354E3,2.6005531E4,4.180275E4,3.1808016E4,0E0,7.018234E4,7.338625E4,1.100135E5,1.2616535E5,6.608398E4,2.4377047E4,9.506234E4,1.1261847E5,2.1971333E3,4.555522E3,5.6213535E3,4.58638E3,1.0637234E4,1.6900727E4,6.2558057E2,2.6630288E3,6.9766055E3,3.1109828E4,4.2827086E4,6.776708E4,2.8686062E4,1.9222902E4,8.7244625E4,7.364151E4,9.80848E3,6.899778E4,8.918294E4,0E0,5.011387E4,5.3467492E4,2.3513064E4,5.467403E4,1.4174164E4,3.7732086E4,1.1911344E4,1.1458256E4,6.4037906E4,0E0,0E0,0E0,0E0,0E0,0E0,0E0,0E0,0E0,0E0,0E0,0E0,0E0,0E0,0E0,0E0,0E0,0E0,0E0,0E0,0E0,0E0,0E0,0E0,0E0,0E0,0E0,0E0,0E0,0E0,0E0,0E0,0E0,0E0,0E0,0E0,0E0,0E0,0E0,0E0,0E0,0E0,0E0,0E0,0E0,0E0,0E0,0E0,0E0,0E0,0E0,0E0,0E0,0E0,0E0,0E0,0E0],"parents":[2147483647,0,0,1,1,2,2,3,3,4,4,5,5,6,6,7,7,8,8,9,9,10,10,11,11,12,12,13,13,14,14,15,15,16,16,17,17,18,18,19,19,20,20,21,21,23,23,24,24,25,25,26,26,27,27,28,28,29,29,30,30,31,31,32,32,33,33,34,34,35,35,36,36,37,37,38,38,39,39,40,40,41,41,42,42,43,43,44,44,45,45,46,46,47,47,48,48,49,49,51,51,52,52,53,53,54,54,55,55,56,56,57,57,58,58,59,59],"right_children":[2,4,6,8,10,12,14,16,18,20,22,24,26,28,30,32,34,36,38,40,42,44,-1,46,48,50,52,54,56,58,60,62,64,66,68,70,72,74,76,78,80,82,84,86,88,90,92,94,96,98,-1,100,102,104,106,108,110,112,114,116,-1,-1,-1,-1,-1,-1,-1,-1,-1,-1,-1,-1,-1,-1,-1,-1,-1,-1,-1,-1,-1,-1,-1,-1,-1,-1,-1,-1,-1,-1,-1,-1,-1,-1,-1,-1,-1,-1,-1,-1,-1,-1,-1,-1,-1,-1,-1,-1,-1,-1,-1,-1,-1,-1,-1,-1,-1],"split_conditions":[8.7309525E1,3.0869446E1,3.793421E2,1.717075E3,6.6610303E3,2.331875E2,1.1058811E4,2.25655E2,2.95E1,5.5E0,1.9525E2,3.295E2,1.83457E4,4.5E0,3.3225E2,2.0077778E1,4.5E0,3.295E2,1.05E1,1.5E0,2.655E2,4.5E0,4.9078617E1,1.85E1,3.034945E3,1.8215414E4,4.0394344E4,1.85E1,5.39E2,2.635E2,1.434631E5,6.5E0,1.5E0,1.4522728E1,3.948077E1,1.5E0,2.65E1,4.126923E1,3.2114849E3,1.115845E3,2.455E2,9.7850006E1,2.665E2,7.608896E4,2.4368591E1,3.165E2,2.35E1,5.3716347E1,1.3929166E2,4.95331E3,6.1586964E1,2.3495E2,9.5E0,1.462145E3,4.11325E2,5.5E0,6.068005E3,5E0,4.017625E2,3.285E2,6.9878944E1,8.639697E-2,-1.6993186E-1,1.9123856E0,-1.1832267E0,6.936008E-2,2.338741E-1,-1.1276556E-1,-1.7322698E0,-5.138926E-1,2.5732285E-1,1.7188333E0,4.6317622E-1,-3.10765E-1,-2.0892403E0,-4.5853102E-1,-1.8716351E0,1.1155118E0,-1.4527836E-1,3.179765E0,1.2703863E0,7.806291E-1,5.1190333E0,-2.2615783E0,2.976979E-1,2.5585828E0,3.1954447E1,7.5044675E0,8.6957616E-1,2.2869349E0,-1.00371E0,-4.790838E-1,1.6648769E0,-9.403507E0,-5.408188E-1,3.416608E0,9.947445E0,2.6306963E0,5.9959326E0,1.8972868E1,-5.292638E0,7.160271E-1,2.7625269E1,-2.4866743E1,9.068415E0,1.6624994E0,-2.176878E1,7.4980364E0,2.7422798E0,3.0460838E1,1.891441E0,4.3275368E1,1.5157686E1,1.5253244E1,-1.1871326E1,9.475927E0,2.6238638E1],"split_indices":[8,9,9,0,0,9,0,0,2,2,9,3,0,4,8,9,4,3,1,2,3,4,0,2,0,0,0,2,9,3,0,2,2,9,8,2,2,8,0,0,3,9,3,0,8,3,2,9,9,0,0,9,2,0,9,4,0,4,9,3,0,0,0,0,0,0,0,0,0,0,0,0,0,0,0,0,0,0,0,0,0,0,0,0,0,0,0,0,0,0,0,0,0,0,0,0,0,0,0,0,0,0,0,0,0,0,0,0,0,0,0,0,0,0,0,0,0],"split_type":[0,0,0,0,0,0,0,0,0,0,0,0,0,0,0,0,0,0,0,0,0,0,0,0,0,0,0,0,0,0,0,0,0,0,0,0,0,0,0,0,0,0,0,0,0,0,0,0,0,0,0,0,0,0,0,0,0,0,0,0,0,0,0,0,0,0,0,0,0,0,0,0,0,0,0,0,0,0,0,0,0,0,0,0,0,0,0,0,0,0,0,0,0,0,0,0,0,0,0,0,0,0,0,0,0,0,0,0,0,0,0,0,0,0,0,0,0],"sum_hessian":[2.83746E5,2.62924E5,2.0822E4,2.00353E5,6.2571E4,2.0227E4,5.95E2,1.41792E5,5.8561E4,5.8183E4,4.388E3,1.7086E4,3.141E3,3.12E2,2.83E2,1.8609E4,1.23183E5,5.6032E4,2.529E3,9.101E3,4.9082E4,4.386E3,2E0,1.6234E4,8.52E2,2.908E3,2.33E2,6.7E1,2.45E2,2.6E1,2.57E2,1.7932E4,6.77E2,1.07522E5,1.5661E4,5.1883E4,4.149E3,1.953E3,5.76E2,1.855E3,7.246E3,1.3622E4,3.546E4,2.028E3,2.358E3,1.0358E4,5.876E3,1.91E2,6.61E2,2.906E3,2E0,2.06E2,2.7E1,3.2E1,3.5E1,2.29E2,1.6E1,2.1E1,5E0,2.55E2,2E0,3.825E3,1.4107E4,4.5E1,6.32E2,8.3432E4,2.409E4,1.5503E4,1.58E2,1.662E3,5.0221E4,1.526E3,2.623E3,1.936E3,1.7E1,4.06E2,1.7E2,5.69E2,1.286E3,8.73E2,6.373E3,1.3415E4,2.07E2,9.56E2,3.4504E4,2.026E3,2E0,3.9E1,2.319E3,9.574E3,7.84E2,2.536E3,3.34E3,1.1E1,1.8E2,4.44E2,2.17E2,1.674E3,1.232E3,7E0,1.99E2,1.1E1,1.6E1,1E0,3.1E1,1.6E1,1.9E1,1.2E2,1.09E2,8E0,8E0,1.8E1,3E0,1E0,4E0,2.33E2,2.2E1],"tree_param":{"num_deleted":"0","num_feature":"10","num_nodes":"117","size_leaf_vector":"0"}}]},"name":"gbtree"},"learner_model_param":{"base_score":"5E-1","num_class":"0","num_feature":"10"},"objective":{"name":"reg:squarederror","reg_loss_param":{"scale_pos_weight":"1"}}},"version":[1,5,1]}